<?xml version="1.0"?>
<MethodSetup Method="BDT::BDT">
  <GeneralInfo>
    <Info name="TMVA Release" value="4.2.1 [262657]"/>
    <Info name="ROOT Release" value="6.14/09 [396809]"/>
    <Info name="Creator" value="fsimone"/>
    <Info name="Date" value="Sun Jun 27 19:41:57 2021"/>
    <Info name="Host" value="Linux cmsbuild12.cern.ch 3.10.0-1062.4.1.el7.x86_64 #1 SMP Fri Oct 18 17:15:30 UTC 2019 x86_64 x86_64 x86_64 GNU/Linux"/>
    <Info name="Dir" value="/lustrehome/fsimone/MVA_2018"/>
    <Info name="Training events" value="99424"/>
    <Info name="TrainingTime" value="4.75335748e+01"/>
    <Info name="AnalysisType" value="Classification"/>
  </GeneralInfo>
  <Options>
    <Option name="V" modified="Yes">False</Option>
    <Option name="VerbosityLevel" modified="No">Default</Option>
    <Option name="VarTransform" modified="No">None</Option>
    <Option name="H" modified="Yes">False</Option>
    <Option name="CreateMVAPdfs" modified="No">False</Option>
    <Option name="IgnoreNegWeightsInTraining" modified="No">False</Option>
    <Option name="NTrees" modified="Yes">1000</Option>
    <Option name="MaxDepth" modified="Yes">4</Option>
    <Option name="MinNodeSize" modified="Yes">2.5%</Option>
    <Option name="nCuts" modified="Yes">50</Option>
    <Option name="BoostType" modified="Yes">AdaBoost</Option>
    <Option name="AdaBoostR2Loss" modified="No">quadratic</Option>
    <Option name="UseBaggedBoost" modified="Yes">True</Option>
    <Option name="Shrinkage" modified="No">1.000000e+00</Option>
    <Option name="AdaBoostBeta" modified="Yes">5.000000e-01</Option>
    <Option name="UseRandomisedTrees" modified="No">False</Option>
    <Option name="UseNvars" modified="No">4</Option>
    <Option name="UsePoissonNvars" modified="No">True</Option>
    <Option name="BaggedSampleFraction" modified="Yes">5.000000e-01</Option>
    <Option name="UseYesNoLeaf" modified="No">True</Option>
    <Option name="NegWeightTreatment" modified="No">inverseboostnegweights</Option>
    <Option name="Css" modified="No">1.000000e+00</Option>
    <Option name="Cts_sb" modified="No">1.000000e+00</Option>
    <Option name="Ctb_ss" modified="No">1.000000e+00</Option>
    <Option name="Cbb" modified="No">1.000000e+00</Option>
    <Option name="NodePurityLimit" modified="No">5.000000e-01</Option>
    <Option name="SeparationType" modified="Yes">giniindex</Option>
    <Option name="RegressionLossFunctionBDTG" modified="No">huber</Option>
    <Option name="HuberQuantile" modified="No">7.000000e-01</Option>
    <Option name="DoBoostMonitor" modified="No">False</Option>
    <Option name="UseFisherCuts" modified="No">False</Option>
    <Option name="MinLinCorrForFisher" modified="No">8.000000e-01</Option>
    <Option name="UseExclusiveVars" modified="No">False</Option>
    <Option name="DoPreselection" modified="No">False</Option>
    <Option name="SigToBkgFraction" modified="No">1.000000e+00</Option>
    <Option name="PruneMethod" modified="No">nopruning</Option>
    <Option name="PruneStrength" modified="No">0.000000e+00</Option>
    <Option name="PruningValFraction" modified="No">5.000000e-01</Option>
    <Option name="SkipNormalization" modified="No">False</Option>
    <Option name="nEventsMin" modified="No">0</Option>
    <Option name="UseBaggedGrad" modified="No">False</Option>
    <Option name="GradBaggingFraction" modified="No">5.000000e-01</Option>
    <Option name="UseNTrainEvents" modified="No">0</Option>
    <Option name="NNodesMax" modified="No">0</Option>
  </Options>
  <Variables NVar="14">
    <Variable VarIndex="0" Expression="cLP&gt;30?30:cLP" Label="cLP&gt;30?30:cLP" Title="cLP" Unit="" Internal="cLP_30_30:cLP" Type="D" Min="4.02048156e-02" Max="3.00000000e+01"/>
    <Variable VarIndex="1" Expression="Pt_tripl" Label="Pt_tripl" Title="Pt_tripl" Unit="" Internal="Pt_tripl" Type="D" Min="9.92876530e+00" Max="1.57125458e+02"/>
    <Variable VarIndex="2" Expression="tKink&gt;80?80:tKink" Label="tKink&gt;80?80:tKink" Title="tKink" Unit="" Internal="tKink_80_80:tKink" Type="D" Min="1.72271156e+00" Max="8.00000000e+01"/>
    <Variable VarIndex="3" Expression="segmComp&lt;0.2?0.2:segmComp" Label="segmComp&lt;0.2?0.2:segmComp" Title="segmComp" Unit="" Internal="segmComp_0.2_0.2:segmComp" Type="D" Min="2.00000003e-01" Max="1.00000000e+00"/>
    <Variable VarIndex="4" Expression="fv_nC&gt;25?25:fv_nC" Label="fv_nC&gt;25?25:fv_nC" Title="fv_nC" Unit="" Internal="fv_nC_25_25:fv_nC" Type="D" Min="1.40581906e-04" Max="2.50000000e+01"/>
    <Variable VarIndex="5" Expression="fv_dphi3D&gt;0.15?0.15:fv_dphi3D" Label="fv_dphi3D&gt;0.15?0.15:fv_dphi3D" Title="fv_dphi3D" Unit="" Internal="fv_dphi3D_0.15_0.15:fv_dphi3D" Type="D" Min="0.00000000e+00" Max="1.50000006e-01"/>
    <Variable VarIndex="6" Expression="fv_d3Dsig&gt;100?100:fv_d3Dsig" Label="fv_d3Dsig&gt;100?100:fv_d3Dsig" Title="fv_d3Dsig" Unit="" Internal="fv_d3Dsig_100_100:fv_d3Dsig" Type="D" Min="4.52563643e-01" Max="1.00000000e+02"/>
    <Variable VarIndex="7" Expression="mindca_iso&gt;0.5?0.5:mindca_iso" Label="mindca_iso&gt;0.5?0.5:mindca_iso" Title="mindca_iso" Unit="" Internal="mindca_iso_0.5_0.5:mindca_iso" Type="D" Min="2.11501265e-05" Max="5.00000000e-01"/>
    <Variable VarIndex="8" Expression="trkRel&gt;10?10:trkRel" Label="trkRel&gt;10?10:trkRel" Title="trkRel" Unit="" Internal="trkRel_10_10:trkRel" Type="D" Min="0.00000000e+00" Max="1.00000000e+01"/>
    <Variable VarIndex="9" Expression="MuonIDeval_Mu1.MuonID" Label="MuonIDeval_Mu1.MuonID" Title="MuonIDeval_Mu1.MuonID" Unit="" Internal="MuonIDeval_Mu1.MuonID" Type="D" Min="8.74381587e-02" Max="7.05303133e-01"/>
    <Variable VarIndex="10" Expression="MuonIDeval_Mu2.MuonID" Label="MuonIDeval_Mu2.MuonID" Title="MuonIDeval_Mu2.MuonID" Unit="" Internal="MuonIDeval_Mu2.MuonID" Type="D" Min="8.01346824e-02" Max="7.08489597e-01"/>
    <Variable VarIndex="11" Expression="MuonIDeval_Mu3.MuonID" Label="MuonIDeval_Mu3.MuonID" Title="MuonIDeval_Mu3.MuonID" Unit="" Internal="MuonIDeval_Mu3.MuonID" Type="D" Min="8.21049660e-02" Max="7.02961326e-01"/>
    <Variable VarIndex="12" Expression="std::fmin(std::fmin(abs(dxy1)/dxyErr1,abs(dxy2)/dxyErr2),abs(dxy3)/dxyErr3)" Label="std::fmin(std::fmin(abs(dxy1)/dxyErr1,abs(dxy2)/dxyErr2),abs(dxy3)/dxyErr3)" Title="d0sig_min" Unit="" Internal="std_fmin_std_fmin_abs_dxy1__D_dxyErr1,abs_dxy2__D_dxyErr2_,abs_dxy3__D_dxyErr3_" Type="D" Min="2.38140387e-06" Max="8.29665070e+01"/>
    <Variable VarIndex="13" Expression="std::fmax(std::fmax(abs(dxy1)/dxyErr1,abs(dxy2)/dxyErr2),abs(dxy3)/dxyErr3)" Label="std::fmax(std::fmax(abs(dxy1)/dxyErr1,abs(dxy2)/dxyErr2),abs(dxy3)/dxyErr3)" Title="d0sig_max" Unit="" Internal="std_fmax_std_fmax_abs_dxy1__D_dxyErr1,abs_dxy2__D_dxyErr2_,abs_dxy3__D_dxyErr3_" Type="D" Min="1.07107498e-01" Max="2.75145081e+02"/>
  </Variables>
  <Spectators NSpec="7">
    <Spectator SpecIndex="0" Expression="tripletMass" Label="tripletMass" Title="tripletMass" Unit="" Internal="tripletMass" Type="F" Min="1.62001228e+00" Max="1.99999523e+00"/>
    <Spectator SpecIndex="1" Expression="tripletMassReso" Label="tripletMassReso" Title="tripletMassReso" Unit="" Internal="tripletMassReso" Type="F" Min="3.48273618e-03" Max="6.99995644e-03"/>
    <Spectator SpecIndex="2" Expression="puFactor" Label="puFactor" Title="puFactor" Unit="" Internal="puFactor" Type="F" Min="0.00000000e+00" Max="1.82732189e+00"/>
    <Spectator SpecIndex="3" Expression="evt" Label="evt" Title="evt" Unit="" Internal="evt" Type="F" Min="6.98400000e+03" Max="4.29412659e+09"/>
    <Spectator SpecIndex="4" Expression="dimu12" Label="dimu12" Title="dimu12" Unit="" Internal="dimu12" Type="F" Min="0.00000000e+00" Max="1.85632265e+00"/>
    <Spectator SpecIndex="5" Expression="dimu13" Label="dimu13" Title="dimu13" Unit="" Internal="dimu13" Type="F" Min="0.00000000e+00" Max="1.79898429e+00"/>
    <Spectator SpecIndex="6" Expression="dimu23" Label="dimu23" Title="dimu23" Unit="" Internal="dimu23" Type="F" Min="0.00000000e+00" Max="1.57062697e+00"/>
  </Spectators>
  <Classes NClass="2">
    <Class Name="Signal" Index="0"/>
    <Class Name="Background" Index="1"/>
  </Classes>
  <Transformations NTransformations="0"/>
  <MVAPdfs/>
  <Weights NTrees="1000" AnalysisType="0">
    <BinaryTree type="DecisionTree" boostWeight="5.9552448750621789e-01" itree="0">
      <Node pos="s" depth="0" NCoef="0" IVar="5" Cut="2.3529412224888802e-02" cType="1" res="-9.9000000000000000e+01" rms="0.0000000000000000e+00" purity="5.0282090902328491e-01" nType="0">
        <Node pos="l" depth="1" NCoef="0" IVar="4" Cut="2.9416973590850830e+00" cType="1" res="-9.9000000000000000e+01" rms="0.0000000000000000e+00" purity="7.3204129934310913e-01" nType="0">
          <Node pos="l" depth="2" NCoef="0" IVar="7" Cut="9.9022863432765007e-03" cType="0" res="-9.9000000000000000e+01" rms="0.0000000000000000e+00" purity="7.9893302917480469e-01" nType="0">
            <Node pos="l" depth="3" NCoef="0" IVar="-1" Cut="1.3838900253176689e-02" cType="1" res="-9.9000000000000000e+01" rms="0.0000000000000000e+00" purity="8.5989546775817871e-01" nType="1"/>
            <Node pos="r" depth="3" NCoef="0" IVar="4" Cut="1.1534771919250488e+00" cType="1" res="-9.9000000000000000e+01" rms="0.0000000000000000e+00" purity="5.7748943567276001e-01" nType="0">
              <Node pos="l" depth="4" NCoef="0" IVar="-1" Cut="0.0000000000000000e+00" cType="1" res="-9.9000000000000000e+01" rms="0.0000000000000000e+00" purity="6.5846973657608032e-01" nType="1"/>
              <Node pos="r" depth="4" NCoef="0" IVar="-1" Cut="0.0000000000000000e+00" cType="1" res="-9.9000000000000000e+01" rms="0.0000000000000000e+00" purity="4.4917440414428711e-01" nType="-1"/>
            </Node>
          </Node>
          <Node pos="r" depth="2" NCoef="0" IVar="7" Cut="1.9909866154193878e-02" cType="0" res="-9.9000000000000000e+01" rms="0.0000000000000000e+00" purity="3.6472731828689575e-01" nType="0">
            <Node pos="l" depth="3" NCoef="0" IVar="-1" Cut="0.0000000000000000e+00" cType="1" res="-9.9000000000000000e+01" rms="0.0000000000000000e+00" purity="5.2011144161224365e-01" nType="1"/>
            <Node pos="r" depth="3" NCoef="0" IVar="-1" Cut="0.0000000000000000e+00" cType="1" res="-9.9000000000000000e+01" rms="0.0000000000000000e+00" purity="2.3140718042850494e-01" nType="-1"/>
          </Node>
        </Node>
        <Node pos="r" depth="1" NCoef="0" IVar="4" Cut="1.9612993001937866e+00" cType="1" res="-9.9000000000000000e+01" rms="0.0000000000000000e+00" purity="3.0392682552337646e-01" nType="0">
          <Node pos="l" depth="2" NCoef="0" IVar="5" Cut="5.5767595767974854e-02" cType="1" res="-9.9000000000000000e+01" rms="0.0000000000000000e+00" purity="4.5124623179435730e-01" nType="0">
            <Node pos="l" depth="3" NCoef="0" IVar="11" Cut="5.1881349086761475e-01" cType="0" res="-9.9000000000000000e+01" rms="0.0000000000000000e+00" purity="5.3701174259185791e-01" nType="0">
              <Node pos="l" depth="4" NCoef="0" IVar="-1" Cut="0.0000000000000000e+00" cType="1" res="-9.9000000000000000e+01" rms="0.0000000000000000e+00" purity="5.9167033433914185e-01" nType="1"/>
              <Node pos="r" depth="4" NCoef="0" IVar="-1" Cut="0.0000000000000000e+00" cType="1" res="-9.9000000000000000e+01" rms="0.0000000000000000e+00" purity="2.9935956001281738e-01" nType="-1"/>
            </Node>
            <Node pos="r" depth="3" NCoef="0" IVar="-1" Cut="7.4253134429454803e-02" cType="1" res="-9.9000000000000000e+01" rms="0.0000000000000000e+00" purity="2.6813673973083496e-01" nType="-1"/>
          </Node>
          <Node pos="r" depth="2" NCoef="0" IVar="-1" Cut="4.8328008502721786e-02" cType="1" res="-9.9000000000000000e+01" rms="0.0000000000000000e+00" purity="1.2086160480976105e-01" nType="-1"/>
        </Node>
      </Node>
    </BinaryTree>
    <BinaryTree type="DecisionTree" boostWeight="4.7798527268286661e-01" itree="1">
      <Node pos="s" depth="0" NCoef="0" IVar="5" Cut="2.0588235929608345e-02" cType="1" res="-9.9000000000000000e+01" rms="0.0000000000000000e+00" purity="4.8803317546844482e-01" nType="0">
        <Node pos="l" depth="1" NCoef="0" IVar="4" Cut="3.4314937591552734e+00" cType="1" res="-9.9000000000000000e+01" rms="0.0000000000000000e+00" purity="7.2060877084732056e-01" nType="0">
          <Node pos="l" depth="2" NCoef="0" IVar="7" Cut="9.9022863432765007e-03" cType="0" res="-9.9000000000000000e+01" rms="0.0000000000000000e+00" purity="7.7703958749771118e-01" nType="0">
            <Node pos="l" depth="3" NCoef="0" IVar="-1" Cut="5.0334209203720093e-01" cType="0" res="-9.9000000000000000e+01" rms="0.0000000000000000e+00" purity="8.3625406026840210e-01" nType="1"/>
            <Node pos="r" depth="3" NCoef="0" IVar="0" Cut="4.2026491165161133e+00" cType="1" res="-9.9000000000000000e+01" rms="0.0000000000000000e+00" purity="5.5662167072296143e-01" nType="0">
              <Node pos="l" depth="4" NCoef="0" IVar="-1" Cut="0.0000000000000000e+00" cType="1" res="-9.9000000000000000e+01" rms="0.0000000000000000e+00" purity="6.4786511659622192e-01" nType="1"/>
              <Node pos="r" depth="4" NCoef="0" IVar="-1" Cut="0.0000000000000000e+00" cType="1" res="-9.9000000000000000e+01" rms="0.0000000000000000e+00" purity="4.3355762958526611e-01" nType="-1"/>
            </Node>
          </Node>
          <Node pos="r" depth="2" NCoef="0" IVar="-1" Cut="0.0000000000000000e+00" cType="1" res="-9.9000000000000000e+01" rms="0.0000000000000000e+00" purity="3.2213145494461060e-01" nType="-1"/>
        </Node>
        <Node pos="r" depth="1" NCoef="0" IVar="4" Cut="2.4514844417572021e+00" cType="1" res="-9.9000000000000000e+01" rms="0.0000000000000000e+00" purity="3.2941922545433044e-01" nType="0">
          <Node pos="l" depth="2" NCoef="0" IVar="10" Cut="4.9359998106956482e-01" cType="0" res="-9.9000000000000000e+01" rms="0.0000000000000000e+00" purity="4.3311843276023865e-01" nType="0">
            <Node pos="l" depth="3" NCoef="0" IVar="11" Cut="4.6875166893005371e-01" cType="0" res="-9.9000000000000000e+01" rms="0.0000000000000000e+00" purity="4.7734072804450989e-01" nType="0">
              <Node pos="l" depth="4" NCoef="0" IVar="-1" Cut="0.0000000000000000e+00" cType="1" res="-9.9000000000000000e+01" rms="0.0000000000000000e+00" purity="5.1605933904647827e-01" nType="1"/>
              <Node pos="r" depth="4" NCoef="0" IVar="-1" Cut="0.0000000000000000e+00" cType="1" res="-9.9000000000000000e+01" rms="0.0000000000000000e+00" purity="2.0273584127426147e-01" nType="-1"/>
            </Node>
            <Node pos="r" depth="3" NCoef="0" IVar="-1" Cut="0.0000000000000000e+00" cType="1" res="-9.9000000000000000e+01" rms="0.0000000000000000e+00" purity="1.8302117288112640e-01" nType="-1"/>
          </Node>
          <Node pos="r" depth="2" NCoef="0" IVar="-1" Cut="4.3450497090816498e-02" cType="1" res="-9.9000000000000000e+01" rms="0.0000000000000000e+00" purity="1.3339254260063171e-01" nType="-1"/>
        </Node>
      </Node>
    </BinaryTree>
    <BinaryTree type="DecisionTree" boostWeight="4.7823090032304427e-01" itree="2">
      <Node pos="s" depth="0" NCoef="0" IVar="5" Cut="2.0588235929608345e-02" cType="1" res="-9.9000000000000000e+01" rms="0.0000000000000000e+00" purity="4.7391283512115479e-01" nType="0">
        <Node pos="l" depth="1" NCoef="0" IVar="4" Cut="1.9612454175949097e+00" cType="1" res="-9.9000000000000000e+01" rms="0.0000000000000000e+00" purity="7.0147687196731567e-01" nType="0">
          <Node pos="l" depth="2" NCoef="0" IVar="7" Cut="1.9792487844824791e-02" cType="0" res="-9.9000000000000000e+01" rms="0.0000000000000000e+00" purity="7.7153939008712769e-01" nType="0">
            <Node pos="l" depth="3" NCoef="0" IVar="-1" Cut="1.2514286674559116e-02" cType="1" res="-9.9000000000000000e+01" rms="0.0000000000000000e+00" purity="8.5053861141204834e-01" nType="1"/>
            <Node pos="r" depth="3" NCoef="0" IVar="11" Cut="5.4902565479278564e-01" cType="0" res="-9.9000000000000000e+01" rms="0.0000000000000000e+00" purity="6.4308094978332520e-01" nType="0">
              <Node pos="l" depth="4" NCoef="0" IVar="-1" Cut="0.0000000000000000e+00" cType="1" res="-9.9000000000000000e+01" rms="0.0000000000000000e+00" purity="7.0717233419418335e-01" nType="1"/>
              <Node pos="r" depth="4" NCoef="0" IVar="-1" Cut="0.0000000000000000e+00" cType="1" res="-9.9000000000000000e+01" rms="0.0000000000000000e+00" purity="4.4774442911148071e-01" nType="-1"/>
            </Node>
          </Node>
          <Node pos="r" depth="2" NCoef="0" IVar="5" Cut="9.3354098498821259e-03" cType="1" res="-9.9000000000000000e+01" rms="0.0000000000000000e+00" purity="4.9761718511581421e-01" nType="0">
            <Node pos="l" depth="3" NCoef="0" IVar="-1" Cut="0.0000000000000000e+00" cType="1" res="-9.9000000000000000e+01" rms="0.0000000000000000e+00" purity="6.7748904228210449e-01" nType="1"/>
            <Node pos="r" depth="3" NCoef="0" IVar="-1" Cut="3.5883657932281494e+00" cType="1" res="-9.9000000000000000e+01" rms="0.0000000000000000e+00" purity="3.8921636343002319e-01" nType="-1"/>
          </Node>
        </Node>
        <Node pos="r" depth="1" NCoef="0" IVar="4" Cut="1.4711959362030029e+00" cType="1" res="-9.9000000000000000e+01" rms="0.0000000000000000e+00" purity="3.2329547405242920e-01" nType="0">
          <Node pos="l" depth="2" NCoef="0" IVar="0" Cut="7.1419363021850586e+00" cType="1" res="-9.9000000000000000e+01" rms="0.0000000000000000e+00" purity="4.4294694066047668e-01" nType="0">
            <Node pos="l" depth="3" NCoef="0" IVar="5" Cut="4.0889158844947815e-02" cType="1" res="-9.9000000000000000e+01" rms="0.0000000000000000e+00" purity="4.9143862724304199e-01" nType="0">
              <Node pos="l" depth="4" NCoef="0" IVar="-1" Cut="0.0000000000000000e+00" cType="1" res="-9.9000000000000000e+01" rms="0.0000000000000000e+00" purity="5.8233892917633057e-01" nType="1"/>
              <Node pos="r" depth="4" NCoef="0" IVar="-1" Cut="0.0000000000000000e+00" cType="1" res="-9.9000000000000000e+01" rms="0.0000000000000000e+00" purity="3.9744445681571960e-01" nType="-1"/>
            </Node>
            <Node pos="r" depth="3" NCoef="0" IVar="-1" Cut="5.4509806632995605e-01" cType="0" res="-9.9000000000000000e+01" rms="0.0000000000000000e+00" purity="2.9194587469100952e-01" nType="-1"/>
          </Node>
          <Node pos="r" depth="2" NCoef="0" IVar="-1" Cut="6.1191033571958542e-02" cType="1" res="-9.9000000000000000e+01" rms="0.0000000000000000e+00" purity="2.0637510716915131e-01" nType="-1"/>
        </Node>
      </Node>
    </BinaryTree>
    <BinaryTree type="DecisionTree" boostWeight="3.6477834989815217e-01" itree="3">
      <Node pos="s" depth="0" NCoef="0" IVar="5" Cut="2.0588235929608345e-02" cType="1" res="-9.9000000000000000e+01" rms="0.0000000000000000e+00" purity="4.8728162050247192e-01" nType="0">
        <Node pos="l" depth="1" NCoef="0" IVar="10" Cut="4.7914692759513855e-01" cType="0" res="-9.9000000000000000e+01" rms="0.0000000000000000e+00" purity="6.7722284793853760e-01" nType="0">
          <Node pos="l" depth="2" NCoef="0" IVar="11" Cut="4.7369709610939026e-01" cType="0" res="-9.9000000000000000e+01" rms="0.0000000000000000e+00" purity="7.1271836757659912e-01" nType="0">
            <Node pos="l" depth="3" NCoef="0" IVar="-1" Cut="9.9661489948630333e-03" cType="0" res="-9.9000000000000000e+01" rms="0.0000000000000000e+00" purity="7.4588394165039062e-01" nType="1"/>
            <Node pos="r" depth="3" NCoef="0" IVar="-1" Cut="0.0000000000000000e+00" cType="1" res="-9.9000000000000000e+01" rms="0.0000000000000000e+00" purity="3.9746800065040588e-01" nType="-1"/>
          </Node>
          <Node pos="r" depth="2" NCoef="0" IVar="-1" Cut="0.0000000000000000e+00" cType="1" res="-9.9000000000000000e+01" rms="0.0000000000000000e+00" purity="3.2385215163230896e-01" nType="-1"/>
        </Node>
        <Node pos="r" depth="1" NCoef="0" IVar="-1" Cut="2.9419820308685303e+00" cType="1" res="-9.9000000000000000e+01" rms="0.0000000000000000e+00" purity="3.6032354831695557e-01" nType="-1"/>
      </Node>
    </BinaryTree>
    <BinaryTree type="DecisionTree" boostWeight="3.8095557261333085e-01" itree="4">
      <Node pos="s" depth="0" NCoef="0" IVar="5" Cut="3.2352942973375320e-02" cType="1" res="-9.9000000000000000e+01" rms="0.0000000000000000e+00" purity="4.9892893433570862e-01" nType="0">
        <Node pos="l" depth="1" NCoef="0" IVar="7" Cut="9.9661489948630333e-03" cType="0" res="-9.9000000000000000e+01" rms="0.0000000000000000e+00" purity="6.0796785354614258e-01" nType="0">
          <Node pos="l" depth="2" NCoef="0" IVar="4" Cut="1.4707205295562744e+00" cType="1" res="-9.9000000000000000e+01" rms="0.0000000000000000e+00" purity="6.7938190698623657e-01" nType="0">
            <Node pos="l" depth="3" NCoef="0" IVar="-1" Cut="8.2450872287154198e-03" cType="1" res="-9.9000000000000000e+01" rms="0.0000000000000000e+00" purity="7.6363414525985718e-01" nType="1"/>
            <Node pos="r" depth="3" NCoef="0" IVar="4" Cut="4.7004027366638184e+00" cType="1" res="-9.9000000000000000e+01" rms="0.0000000000000000e+00" purity="5.3874075412750244e-01" nType="0">
              <Node pos="l" depth="4" NCoef="0" IVar="-1" Cut="0.0000000000000000e+00" cType="1" res="-9.9000000000000000e+01" rms="0.0000000000000000e+00" purity="5.9172838926315308e-01" nType="1"/>
              <Node pos="r" depth="4" NCoef="0" IVar="-1" Cut="0.0000000000000000e+00" cType="1" res="-9.9000000000000000e+01" rms="0.0000000000000000e+00" purity="3.5533285140991211e-01" nType="-1"/>
            </Node>
          </Node>
          <Node pos="r" depth="2" NCoef="0" IVar="4" Cut="2.9421334266662598e+00" cType="1" res="-9.9000000000000000e+01" rms="0.0000000000000000e+00" purity="4.3089613318443298e-01" nType="0">
            <Node pos="l" depth="3" NCoef="0" IVar="10" Cut="6.0301208496093750e-01" cType="0" res="-9.9000000000000000e+01" rms="0.0000000000000000e+00" purity="4.7925126552581787e-01" nType="0">
              <Node pos="l" depth="4" NCoef="0" IVar="-1" Cut="0.0000000000000000e+00" cType="1" res="-9.9000000000000000e+01" rms="0.0000000000000000e+00" purity="5.6776225566864014e-01" nType="1"/>
              <Node pos="r" depth="4" NCoef="0" IVar="-1" Cut="0.0000000000000000e+00" cType="1" res="-9.9000000000000000e+01" rms="0.0000000000000000e+00" purity="3.9414900541305542e-01" nType="-1"/>
            </Node>
            <Node pos="r" depth="3" NCoef="0" IVar="-1" Cut="0.0000000000000000e+00" cType="1" res="-9.9000000000000000e+01" rms="0.0000000000000000e+00" purity="2.4881663918495178e-01" nType="-1"/>
          </Node>
        </Node>
        <Node pos="r" depth="1" NCoef="0" IVar="4" Cut="1.4707276821136475e+00" cType="1" res="-9.9000000000000000e+01" rms="0.0000000000000000e+00" purity="3.4737271070480347e-01" nType="0">
          <Node pos="l" depth="2" NCoef="0" IVar="6" Cut="2.2985139846801758e+01" cType="0" res="-9.9000000000000000e+01" rms="0.0000000000000000e+00" purity="4.6325898170471191e-01" nType="0">
            <Node pos="l" depth="3" NCoef="0" IVar="-1" Cut="1.9254053115844727e+01" cType="1" res="-9.9000000000000000e+01" rms="0.0000000000000000e+00" purity="6.0977309942245483e-01" nType="1"/>
            <Node pos="r" depth="3" NCoef="0" IVar="-1" Cut="5.3266763687133789e-01" cType="0" res="-9.9000000000000000e+01" rms="0.0000000000000000e+00" purity="4.0556335449218750e-01" nType="-1"/>
          </Node>
          <Node pos="r" depth="2" NCoef="0" IVar="-1" Cut="6.2343176454305649e-02" cType="1" res="-9.9000000000000000e+01" rms="0.0000000000000000e+00" purity="2.2797442972660065e-01" nType="-1"/>
        </Node>
      </Node>
    </BinaryTree>
    <BinaryTree type="DecisionTree" boostWeight="3.1518401761725950e-01" itree="5">
      <Node pos="s" depth="0" NCoef="0" IVar="5" Cut="1.4705883339047432e-02" cType="1" res="-9.9000000000000000e+01" rms="0.0000000000000000e+00" purity="5.0197559595108032e-01" nType="0">
        <Node pos="l" depth="1" NCoef="0" IVar="6" Cut="7.5878114700317383e+00" cType="0" res="-9.9000000000000000e+01" rms="0.0000000000000000e+00" purity="6.8341988325119019e-01" nType="0">
          <Node pos="l" depth="2" NCoef="0" IVar="-1" Cut="1.0052632540464401e-02" cType="0" res="-9.9000000000000000e+01" rms="0.0000000000000000e+00" purity="7.1918362379074097e-01" nType="1"/>
          <Node pos="r" depth="2" NCoef="0" IVar="-1" Cut="0.0000000000000000e+00" cType="1" res="-9.9000000000000000e+01" rms="0.0000000000000000e+00" purity="4.2093378305435181e-01" nType="-1"/>
        </Node>
        <Node pos="r" depth="1" NCoef="0" IVar="4" Cut="2.9413073062896729e+00" cType="1" res="-9.9000000000000000e+01" rms="0.0000000000000000e+00" purity="4.2967545986175537e-01" nType="0">
          <Node pos="l" depth="2" NCoef="0" IVar="9" Cut="4.8598656058311462e-01" cType="0" res="-9.9000000000000000e+01" rms="0.0000000000000000e+00" purity="4.8641175031661987e-01" nType="0">
            <Node pos="l" depth="3" NCoef="0" IVar="1" Cut="2.6656253814697266e+01" cType="1" res="-9.9000000000000000e+01" rms="0.0000000000000000e+00" purity="5.1218402385711670e-01" nType="0">
              <Node pos="l" depth="4" NCoef="0" IVar="-1" Cut="0.0000000000000000e+00" cType="1" res="-9.9000000000000000e+01" rms="0.0000000000000000e+00" purity="5.5808341503143311e-01" nType="1"/>
              <Node pos="r" depth="4" NCoef="0" IVar="-1" Cut="0.0000000000000000e+00" cType="1" res="-9.9000000000000000e+01" rms="0.0000000000000000e+00" purity="3.5347470641136169e-01" nType="-1"/>
            </Node>
            <Node pos="r" depth="3" NCoef="0" IVar="-1" Cut="0.0000000000000000e+00" cType="1" res="-9.9000000000000000e+01" rms="0.0000000000000000e+00" purity="2.1706368029117584e-01" nType="-1"/>
          </Node>
          <Node pos="r" depth="2" NCoef="0" IVar="-1" Cut="4.6541191637516022e-02" cType="1" res="-9.9000000000000000e+01" rms="0.0000000000000000e+00" purity="2.5120595097541809e-01" nType="-1"/>
        </Node>
      </Node>
    </BinaryTree>
    <BinaryTree type="DecisionTree" boostWeight="2.8480316674763606e-01" itree="6">
      <Node pos="s" depth="0" NCoef="0" IVar="5" Cut="1.4705883339047432e-02" cType="1" res="-9.9000000000000000e+01" rms="0.0000000000000000e+00" purity="4.8776924610137939e-01" nType="0">
        <Node pos="l" depth="1" NCoef="0" IVar="4" Cut="2.4514317512512207e+00" cType="1" res="-9.9000000000000000e+01" rms="0.0000000000000000e+00" purity="6.5271300077438354e-01" nType="0">
          <Node pos="l" depth="2" NCoef="0" IVar="-1" Cut="9.9022863432765007e-03" cType="0" res="-9.9000000000000000e+01" rms="0.0000000000000000e+00" purity="7.0483171939849854e-01" nType="1"/>
          <Node pos="r" depth="2" NCoef="0" IVar="10" Cut="6.0081952810287476e-01" cType="0" res="-9.9000000000000000e+01" rms="0.0000000000000000e+00" purity="4.5308887958526611e-01" nType="0">
            <Node pos="l" depth="3" NCoef="0" IVar="-1" Cut="0.0000000000000000e+00" cType="1" res="-9.9000000000000000e+01" rms="0.0000000000000000e+00" purity="5.0695657730102539e-01" nType="1"/>
            <Node pos="r" depth="3" NCoef="0" IVar="-1" Cut="0.0000000000000000e+00" cType="1" res="-9.9000000000000000e+01" rms="0.0000000000000000e+00" purity="4.0411022305488586e-01" nType="-1"/>
          </Node>
        </Node>
        <Node pos="r" depth="1" NCoef="0" IVar="5" Cut="7.0417553186416626e-02" cType="1" res="-9.9000000000000000e+01" rms="0.0000000000000000e+00" purity="4.2290952801704407e-01" nType="0">
          <Node pos="l" depth="2" NCoef="0" IVar="4" Cut="9.8095947504043579e-01" cType="1" res="-9.9000000000000000e+01" rms="0.0000000000000000e+00" purity="4.6257558465003967e-01" nType="0">
            <Node pos="l" depth="3" NCoef="0" IVar="7" Cut="9.9411150440573692e-03" cType="0" res="-9.9000000000000000e+01" rms="0.0000000000000000e+00" purity="5.5957633256912231e-01" nType="0">
              <Node pos="l" depth="4" NCoef="0" IVar="-1" Cut="0.0000000000000000e+00" cType="1" res="-9.9000000000000000e+01" rms="0.0000000000000000e+00" purity="6.1570763587951660e-01" nType="1"/>
              <Node pos="r" depth="4" NCoef="0" IVar="-1" Cut="0.0000000000000000e+00" cType="1" res="-9.9000000000000000e+01" rms="0.0000000000000000e+00" purity="4.7068262100219727e-01" nType="-1"/>
            </Node>
            <Node pos="r" depth="3" NCoef="0" IVar="-1" Cut="7.0895686149597168e+00" cType="1" res="-9.9000000000000000e+01" rms="0.0000000000000000e+00" purity="3.9694577455520630e-01" nType="-1"/>
          </Node>
          <Node pos="r" depth="2" NCoef="0" IVar="-1" Cut="9.8414856195449829e-01" cType="1" res="-9.9000000000000000e+01" rms="0.0000000000000000e+00" purity="2.1997213363647461e-01" nType="-1"/>
        </Node>
      </Node>
    </BinaryTree>
    <BinaryTree type="DecisionTree" boostWeight="2.8802768621563213e-01" itree="7">
      <Node pos="s" depth="0" NCoef="0" IVar="5" Cut="3.5294119268655777e-02" cType="1" res="-9.9000000000000000e+01" rms="0.0000000000000000e+00" purity="4.9589881300926208e-01" nType="0">
        <Node pos="l" depth="1" NCoef="0" IVar="11" Cut="4.0833809971809387e-01" cType="0" res="-9.9000000000000000e+01" rms="0.0000000000000000e+00" purity="5.6767594814300537e-01" nType="0">
          <Node pos="l" depth="2" NCoef="0" IVar="10" Cut="4.6539765596389771e-01" cType="0" res="-9.9000000000000000e+01" rms="0.0000000000000000e+00" purity="5.9089165925979614e-01" nType="0">
            <Node pos="l" depth="3" NCoef="0" IVar="-1" Cut="9.6881557255983353e-03" cType="1" res="-9.9000000000000000e+01" rms="0.0000000000000000e+00" purity="6.1580598354339600e-01" nType="1"/>
            <Node pos="r" depth="3" NCoef="0" IVar="-1" Cut="0.0000000000000000e+00" cType="1" res="-9.9000000000000000e+01" rms="0.0000000000000000e+00" purity="3.1512424349784851e-01" nType="-1"/>
          </Node>
          <Node pos="r" depth="2" NCoef="0" IVar="-1" Cut="0.0000000000000000e+00" cType="1" res="-9.9000000000000000e+01" rms="0.0000000000000000e+00" purity="2.1798539161682129e-01" nType="-1"/>
        </Node>
        <Node pos="r" depth="1" NCoef="0" IVar="4" Cut="9.8053449392318726e-01" cType="1" res="-9.9000000000000000e+01" rms="0.0000000000000000e+00" purity="3.7882527709007263e-01" nType="0">
          <Node pos="l" depth="2" NCoef="0" IVar="1" Cut="1.8679353713989258e+01" cType="1" res="-9.9000000000000000e+01" rms="0.0000000000000000e+00" purity="5.0328099727630615e-01" nType="0">
            <Node pos="l" depth="3" NCoef="0" IVar="10" Cut="5.9316891431808472e-01" cType="0" res="-9.9000000000000000e+01" rms="0.0000000000000000e+00" purity="5.8417791128158569e-01" nType="0">
              <Node pos="l" depth="4" NCoef="0" IVar="-1" Cut="0.0000000000000000e+00" cType="1" res="-9.9000000000000000e+01" rms="0.0000000000000000e+00" purity="6.6461044549942017e-01" nType="1"/>
              <Node pos="r" depth="4" NCoef="0" IVar="-1" Cut="0.0000000000000000e+00" cType="1" res="-9.9000000000000000e+01" rms="0.0000000000000000e+00" purity="4.8855859041213989e-01" nType="-1"/>
            </Node>
            <Node pos="r" depth="3" NCoef="0" IVar="-1" Cut="6.0125160217285156e-01" cType="0" res="-9.9000000000000000e+01" rms="0.0000000000000000e+00" purity="4.2179572582244873e-01" nType="-1"/>
          </Node>
          <Node pos="r" depth="2" NCoef="0" IVar="-1" Cut="7.5779452919960022e-02" cType="1" res="-9.9000000000000000e+01" rms="0.0000000000000000e+00" purity="3.0616638064384460e-01" nType="-1"/>
        </Node>
      </Node>
    </BinaryTree>
    <BinaryTree type="DecisionTree" boostWeight="2.5644490049926028e-01" itree="8">
      <Node pos="s" depth="0" NCoef="0" IVar="4" Cut="1.4707205295562744e+00" cType="1" res="-9.9000000000000000e+01" rms="0.0000000000000000e+00" purity="4.8509594798088074e-01" nType="0">
        <Node pos="l" depth="1" NCoef="0" IVar="5" Cut="8.8235298171639442e-03" cType="1" res="-9.9000000000000000e+01" rms="0.0000000000000000e+00" purity="5.5632615089416504e-01" nType="0">
          <Node pos="l" depth="2" NCoef="0" IVar="-1" Cut="1.9792487844824791e-02" cType="0" res="-9.9000000000000000e+01" rms="0.0000000000000000e+00" purity="7.3384648561477661e-01" nType="1"/>
          <Node pos="r" depth="2" NCoef="0" IVar="10" Cut="4.4905754923820496e-01" cType="0" res="-9.9000000000000000e+01" rms="0.0000000000000000e+00" purity="5.1721888780593872e-01" nType="0">
            <Node pos="l" depth="3" NCoef="0" IVar="9" Cut="5.1828575134277344e-01" cType="0" res="-9.9000000000000000e+01" rms="0.0000000000000000e+00" purity="5.3811776638031006e-01" nType="0">
              <Node pos="l" depth="4" NCoef="0" IVar="-1" Cut="0.0000000000000000e+00" cType="1" res="-9.9000000000000000e+01" rms="0.0000000000000000e+00" purity="5.6148517131805420e-01" nType="1"/>
              <Node pos="r" depth="4" NCoef="0" IVar="-1" Cut="0.0000000000000000e+00" cType="1" res="-9.9000000000000000e+01" rms="0.0000000000000000e+00" purity="3.6034730076789856e-01" nType="-1"/>
            </Node>
            <Node pos="r" depth="3" NCoef="0" IVar="-1" Cut="0.0000000000000000e+00" cType="1" res="-9.9000000000000000e+01" rms="0.0000000000000000e+00" purity="2.8209424018859863e-01" nType="-1"/>
          </Node>
        </Node>
        <Node pos="r" depth="1" NCoef="0" IVar="5" Cut="6.1764709651470184e-02" cType="1" res="-9.9000000000000000e+01" rms="0.0000000000000000e+00" purity="3.9006486535072327e-01" nType="0">
          <Node pos="l" depth="2" NCoef="0" IVar="0" Cut="6.5379538536071777e+00" cType="1" res="-9.9000000000000000e+01" rms="0.0000000000000000e+00" purity="4.3918898701667786e-01" nType="0">
            <Node pos="l" depth="3" NCoef="0" IVar="11" Cut="5.2841240167617798e-01" cType="0" res="-9.9000000000000000e+01" rms="0.0000000000000000e+00" purity="4.9996396899223328e-01" nType="0">
              <Node pos="l" depth="4" NCoef="0" IVar="-1" Cut="0.0000000000000000e+00" cType="1" res="-9.9000000000000000e+01" rms="0.0000000000000000e+00" purity="5.3825825452804565e-01" nType="1"/>
              <Node pos="r" depth="4" NCoef="0" IVar="-1" Cut="0.0000000000000000e+00" cType="1" res="-9.9000000000000000e+01" rms="0.0000000000000000e+00" purity="3.3505576848983765e-01" nType="-1"/>
            </Node>
            <Node pos="r" depth="3" NCoef="0" IVar="-1" Cut="4.6666666865348816e-01" cType="0" res="-9.9000000000000000e+01" rms="0.0000000000000000e+00" purity="2.8593477606773376e-01" nType="-1"/>
          </Node>
          <Node pos="r" depth="2" NCoef="0" IVar="-1" Cut="9.2917457222938538e-02" cType="1" res="-9.9000000000000000e+01" rms="0.0000000000000000e+00" purity="1.7029508948326111e-01" nType="-1"/>
        </Node>
      </Node>
    </BinaryTree>
    <BinaryTree type="DecisionTree" boostWeight="1.7043426309730211e-01" itree="9">
      <Node pos="s" depth="0" NCoef="0" IVar="5" Cut="1.1764706112444401e-02" cType="1" res="-9.9000000000000000e+01" rms="0.0000000000000000e+00" purity="4.7694024443626404e-01" nType="0">
        <Node pos="l" depth="1" NCoef="0" IVar="7" Cut="1.9704241305589676e-02" cType="0" res="-9.9000000000000000e+01" rms="0.0000000000000000e+00" purity="6.2058669328689575e-01" nType="0">
          <Node pos="l" depth="2" NCoef="0" IVar="-1" Cut="1.4710592031478882e+00" cType="1" res="-9.9000000000000000e+01" rms="0.0000000000000000e+00" purity="7.0644259452819824e-01" nType="1"/>
          <Node pos="r" depth="2" NCoef="0" IVar="7" Cut="6.6339015029370785e-03" cType="0" res="-9.9000000000000000e+01" rms="0.0000000000000000e+00" purity="4.7984218597412109e-01" nType="0">
            <Node pos="l" depth="3" NCoef="0" IVar="-1" Cut="0.0000000000000000e+00" cType="1" res="-9.9000000000000000e+01" rms="0.0000000000000000e+00" purity="5.6717681884765625e-01" nType="1"/>
            <Node pos="r" depth="3" NCoef="0" IVar="-1" Cut="0.0000000000000000e+00" cType="1" res="-9.9000000000000000e+01" rms="0.0000000000000000e+00" purity="3.5619255900382996e-01" nType="-1"/>
          </Node>
        </Node>
        <Node pos="r" depth="1" NCoef="0" IVar="11" Cut="4.3797490000724792e-01" cType="0" res="-9.9000000000000000e+01" rms="0.0000000000000000e+00" purity="4.3782636523246765e-01" nType="0">
          <Node pos="l" depth="2" NCoef="0" IVar="5" Cut="7.6816901564598083e-02" cType="1" res="-9.9000000000000000e+01" rms="0.0000000000000000e+00" purity="4.5896676182746887e-01" nType="0">
            <Node pos="l" depth="3" NCoef="0" IVar="10" Cut="4.2028579115867615e-01" cType="0" res="-9.9000000000000000e+01" rms="0.0000000000000000e+00" purity="4.8273283243179321e-01" nType="0">
              <Node pos="l" depth="4" NCoef="0" IVar="-1" Cut="0.0000000000000000e+00" cType="1" res="-9.9000000000000000e+01" rms="0.0000000000000000e+00" purity="5.0006037950515747e-01" nType="1"/>
              <Node pos="r" depth="4" NCoef="0" IVar="-1" Cut="0.0000000000000000e+00" cType="1" res="-9.9000000000000000e+01" rms="0.0000000000000000e+00" purity="2.2127898037433624e-01" nType="-1"/>
            </Node>
            <Node pos="r" depth="3" NCoef="0" IVar="-1" Cut="1.4793361425399780e+00" cType="1" res="-9.9000000000000000e+01" rms="0.0000000000000000e+00" purity="2.6782894134521484e-01" nType="-1"/>
          </Node>
          <Node pos="r" depth="2" NCoef="0" IVar="-1" Cut="3.4883058071136475e-01" cType="0" res="-9.9000000000000000e+01" rms="0.0000000000000000e+00" purity="2.0644144713878632e-01" nType="-1"/>
        </Node>
      </Node>
    </BinaryTree>
    <BinaryTree type="DecisionTree" boostWeight="1.6586621884796746e-01" itree="10">
      <Node pos="s" depth="0" NCoef="0" IVar="5" Cut="8.8235298171639442e-03" cType="1" res="-9.9000000000000000e+01" rms="0.0000000000000000e+00" purity="4.6695402264595032e-01" nType="0">
        <Node pos="l" depth="1" NCoef="0" IVar="7" Cut="9.9923349916934967e-03" cType="0" res="-9.9000000000000000e+01" rms="0.0000000000000000e+00" purity="6.4695769548416138e-01" nType="0">
          <Node pos="l" depth="2" NCoef="0" IVar="-1" Cut="6.7463368177413940e-03" cType="1" res="-9.9000000000000000e+01" rms="0.0000000000000000e+00" purity="7.0889210700988770e-01" nType="1"/>
          <Node pos="r" depth="2" NCoef="0" IVar="-1" Cut="0.0000000000000000e+00" cType="1" res="-9.9000000000000000e+01" rms="0.0000000000000000e+00" purity="4.1268181800842285e-01" nType="-1"/>
        </Node>
        <Node pos="r" depth="1" NCoef="0" IVar="-1" Cut="3.6209902167320251e-01" cType="0" res="-9.9000000000000000e+01" rms="0.0000000000000000e+00" purity="4.3551206588745117e-01" nType="-1"/>
      </Node>
    </BinaryTree>
    <BinaryTree type="DecisionTree" boostWeight="2.1121591561436057e-01" itree="11">
      <Node pos="s" depth="0" NCoef="0" IVar="11" Cut="3.7326240539550781e-01" cType="0" res="-9.9000000000000000e+01" rms="0.0000000000000000e+00" purity="4.8018595576286316e-01" nType="0">
        <Node pos="l" depth="1" NCoef="0" IVar="4" Cut="2.4511072635650635e+00" cType="1" res="-9.9000000000000000e+01" rms="0.0000000000000000e+00" purity="4.9600496888160706e-01" nType="0">
          <Node pos="l" depth="2" NCoef="0" IVar="7" Cut="9.8246568813920021e-03" cType="0" res="-9.9000000000000000e+01" rms="0.0000000000000000e+00" purity="5.3537720441818237e-01" nType="0">
            <Node pos="l" depth="3" NCoef="0" IVar="-1" Cut="1.1764706112444401e-02" cType="1" res="-9.9000000000000000e+01" rms="0.0000000000000000e+00" purity="5.8330398797988892e-01" nType="1"/>
            <Node pos="r" depth="3" NCoef="0" IVar="4" Cut="4.3312507867813110e-01" cType="1" res="-9.9000000000000000e+01" rms="0.0000000000000000e+00" purity="4.4867429137229919e-01" nType="0">
              <Node pos="l" depth="4" NCoef="0" IVar="-1" Cut="0.0000000000000000e+00" cType="1" res="-9.9000000000000000e+01" rms="0.0000000000000000e+00" purity="5.4312467575073242e-01" nType="1"/>
              <Node pos="r" depth="4" NCoef="0" IVar="-1" Cut="0.0000000000000000e+00" cType="1" res="-9.9000000000000000e+01" rms="0.0000000000000000e+00" purity="4.1911688446998596e-01" nType="-1"/>
            </Node>
          </Node>
          <Node pos="r" depth="2" NCoef="0" IVar="5" Cut="5.8823533356189728e-02" cType="1" res="-9.9000000000000000e+01" rms="0.0000000000000000e+00" purity="3.8326224684715271e-01" nType="0">
            <Node pos="l" depth="3" NCoef="0" IVar="1" Cut="2.0883537292480469e+01" cType="1" res="-9.9000000000000000e+01" rms="0.0000000000000000e+00" purity="4.2700523138046265e-01" nType="0">
              <Node pos="l" depth="4" NCoef="0" IVar="-1" Cut="0.0000000000000000e+00" cType="1" res="-9.9000000000000000e+01" rms="0.0000000000000000e+00" purity="5.2227735519409180e-01" nType="1"/>
              <Node pos="r" depth="4" NCoef="0" IVar="-1" Cut="0.0000000000000000e+00" cType="1" res="-9.9000000000000000e+01" rms="0.0000000000000000e+00" purity="3.6629185080528259e-01" nType="-1"/>
            </Node>
            <Node pos="r" depth="3" NCoef="0" IVar="-1" Cut="0.0000000000000000e+00" cType="1" res="-9.9000000000000000e+01" rms="0.0000000000000000e+00" purity="2.1842905879020691e-01" nType="-1"/>
          </Node>
        </Node>
        <Node pos="r" depth="1" NCoef="0" IVar="-1" Cut="0.0000000000000000e+00" cType="1" res="-9.9000000000000000e+01" rms="0.0000000000000000e+00" purity="1.6627208888530731e-01" nType="-1"/>
      </Node>
    </BinaryTree>
    <BinaryTree type="DecisionTree" boostWeight="2.0183472199369415e-01" itree="12">
      <Node pos="s" depth="0" NCoef="0" IVar="11" Cut="3.6209902167320251e-01" cType="0" res="-9.9000000000000000e+01" rms="0.0000000000000000e+00" purity="4.7318485379219055e-01" nType="0">
        <Node pos="l" depth="1" NCoef="0" IVar="10" Cut="3.5585299134254456e-01" cType="0" res="-9.9000000000000000e+01" rms="0.0000000000000000e+00" purity="4.8651513457298279e-01" nType="0">
          <Node pos="l" depth="2" NCoef="0" IVar="9" Cut="4.6376675367355347e-01" cType="0" res="-9.9000000000000000e+01" rms="0.0000000000000000e+00" purity="4.9900287389755249e-01" nType="0">
            <Node pos="l" depth="3" NCoef="0" IVar="6" Cut="1.0212116241455078e+01" cType="0" res="-9.9000000000000000e+01" rms="0.0000000000000000e+00" purity="5.1671439409255981e-01" nType="0">
              <Node pos="l" depth="4" NCoef="0" IVar="-1" Cut="0.0000000000000000e+00" cType="1" res="-9.9000000000000000e+01" rms="0.0000000000000000e+00" purity="5.6621080636978149e-01" nType="1"/>
              <Node pos="r" depth="4" NCoef="0" IVar="-1" Cut="0.0000000000000000e+00" cType="1" res="-9.9000000000000000e+01" rms="0.0000000000000000e+00" purity="4.2959487438201904e-01" nType="-1"/>
            </Node>
            <Node pos="r" depth="3" NCoef="0" IVar="-1" Cut="0.0000000000000000e+00" cType="1" res="-9.9000000000000000e+01" rms="0.0000000000000000e+00" purity="2.5530242919921875e-01" nType="-1"/>
          </Node>
          <Node pos="r" depth="2" NCoef="0" IVar="-1" Cut="0.0000000000000000e+00" cType="1" res="-9.9000000000000000e+01" rms="0.0000000000000000e+00" purity="1.5294243395328522e-01" nType="-1"/>
        </Node>
        <Node pos="r" depth="1" NCoef="0" IVar="-1" Cut="0.0000000000000000e+00" cType="1" res="-9.9000000000000000e+01" rms="0.0000000000000000e+00" purity="1.6321977972984314e-01" nType="-1"/>
      </Node>
    </BinaryTree>
    <BinaryTree type="DecisionTree" boostWeight="1.4849911122877715e-01" itree="13">
      <Node pos="s" depth="0" NCoef="0" IVar="11" Cut="3.3775171637535095e-01" cType="0" res="-9.9000000000000000e+01" rms="0.0000000000000000e+00" purity="4.7195893526077271e-01" nType="0">
        <Node pos="l" depth="1" NCoef="0" IVar="10" Cut="3.9247006177902222e-01" cType="0" res="-9.9000000000000000e+01" rms="0.0000000000000000e+00" purity="4.8323297500610352e-01" nType="0">
          <Node pos="l" depth="2" NCoef="0" IVar="9" Cut="4.0338265895843506e-01" cType="0" res="-9.9000000000000000e+01" rms="0.0000000000000000e+00" purity="4.9607434868812561e-01" nType="0">
            <Node pos="l" depth="3" NCoef="0" IVar="4" Cut="3.9216871261596680e+00" cType="1" res="-9.9000000000000000e+01" rms="0.0000000000000000e+00" purity="5.0777602195739746e-01" nType="0">
              <Node pos="l" depth="4" NCoef="0" IVar="-1" Cut="0.0000000000000000e+00" cType="1" res="-9.9000000000000000e+01" rms="0.0000000000000000e+00" purity="5.2976280450820923e-01" nType="1"/>
              <Node pos="r" depth="4" NCoef="0" IVar="-1" Cut="0.0000000000000000e+00" cType="1" res="-9.9000000000000000e+01" rms="0.0000000000000000e+00" purity="3.6767336726188660e-01" nType="-1"/>
            </Node>
            <Node pos="r" depth="3" NCoef="0" IVar="-1" Cut="0.0000000000000000e+00" cType="1" res="-9.9000000000000000e+01" rms="0.0000000000000000e+00" purity="1.9671155512332916e-01" nType="-1"/>
          </Node>
          <Node pos="r" depth="2" NCoef="0" IVar="-1" Cut="0.0000000000000000e+00" cType="1" res="-9.9000000000000000e+01" rms="0.0000000000000000e+00" purity="2.1432821452617645e-01" nType="-1"/>
        </Node>
        <Node pos="r" depth="1" NCoef="0" IVar="-1" Cut="0.0000000000000000e+00" cType="1" res="-9.9000000000000000e+01" rms="0.0000000000000000e+00" purity="1.4841936528682709e-01" nType="-1"/>
      </Node>
    </BinaryTree>
    <BinaryTree type="DecisionTree" boostWeight="1.2564182912871680e-01" itree="14">
      <Node pos="s" depth="0" NCoef="0" IVar="10" Cut="3.5909056663513184e-01" cType="0" res="-9.9000000000000000e+01" rms="0.0000000000000000e+00" purity="4.6420544385910034e-01" nType="0">
        <Node pos="l" depth="1" NCoef="0" IVar="11" Cut="3.3775171637535095e-01" cType="0" res="-9.9000000000000000e+01" rms="0.0000000000000000e+00" purity="4.7512277960777283e-01" nType="0">
          <Node pos="l" depth="2" NCoef="0" IVar="9" Cut="4.3712636828422546e-01" cType="0" res="-9.9000000000000000e+01" rms="0.0000000000000000e+00" purity="4.8585969209671021e-01" nType="0">
            <Node pos="l" depth="3" NCoef="0" IVar="5" Cut="5.8823530562222004e-03" cType="1" res="-9.9000000000000000e+01" rms="0.0000000000000000e+00" purity="4.9885246157646179e-01" nType="0">
              <Node pos="l" depth="4" NCoef="0" IVar="-1" Cut="0.0000000000000000e+00" cType="1" res="-9.9000000000000000e+01" rms="0.0000000000000000e+00" purity="6.7863833904266357e-01" nType="1"/>
              <Node pos="r" depth="4" NCoef="0" IVar="-1" Cut="0.0000000000000000e+00" cType="1" res="-9.9000000000000000e+01" rms="0.0000000000000000e+00" purity="4.8228859901428223e-01" nType="-1"/>
            </Node>
            <Node pos="r" depth="3" NCoef="0" IVar="-1" Cut="0.0000000000000000e+00" cType="1" res="-9.9000000000000000e+01" rms="0.0000000000000000e+00" purity="2.4032233655452728e-01" nType="-1"/>
          </Node>
          <Node pos="r" depth="2" NCoef="0" IVar="-1" Cut="0.0000000000000000e+00" cType="1" res="-9.9000000000000000e+01" rms="0.0000000000000000e+00" purity="1.6606082022190094e-01" nType="-1"/>
        </Node>
        <Node pos="r" depth="1" NCoef="0" IVar="-1" Cut="0.0000000000000000e+00" cType="1" res="-9.9000000000000000e+01" rms="0.0000000000000000e+00" purity="1.6242448985576630e-01" nType="-1"/>
      </Node>
    </BinaryTree>
    <BinaryTree type="DecisionTree" boostWeight="1.5524637140026956e-01" itree="15">
      <Node pos="s" depth="0" NCoef="0" IVar="11" Cut="5.7972550392150879e-01" cType="0" res="-9.9000000000000000e+01" rms="0.0000000000000000e+00" purity="4.7272735834121704e-01" nType="0">
        <Node pos="l" depth="1" NCoef="0" IVar="4" Cut="3.9216935634613037e+00" cType="1" res="-9.9000000000000000e+01" rms="0.0000000000000000e+00" purity="5.1790601015090942e-01" nType="0">
          <Node pos="l" depth="2" NCoef="0" IVar="9" Cut="4.9633288383483887e-01" cType="0" res="-9.9000000000000000e+01" rms="0.0000000000000000e+00" purity="5.3734159469604492e-01" nType="0">
            <Node pos="l" depth="3" NCoef="0" IVar="-1" Cut="1.4705883339047432e-02" cType="1" res="-9.9000000000000000e+01" rms="0.0000000000000000e+00" purity="5.5287408828735352e-01" nType="1"/>
            <Node pos="r" depth="3" NCoef="0" IVar="-1" Cut="0.0000000000000000e+00" cType="1" res="-9.9000000000000000e+01" rms="0.0000000000000000e+00" purity="3.8207328319549561e-01" nType="-1"/>
          </Node>
          <Node pos="r" depth="2" NCoef="0" IVar="-1" Cut="1.1430419921875000e+01" cType="0" res="-9.9000000000000000e+01" rms="0.0000000000000000e+00" purity="3.8448292016983032e-01" nType="-1"/>
        </Node>
        <Node pos="r" depth="1" NCoef="0" IVar="-1" Cut="3.5582935810089111e-01" cType="0" res="-9.9000000000000000e+01" rms="0.0000000000000000e+00" purity="4.0698295831680298e-01" nType="-1"/>
      </Node>
    </BinaryTree>
    <BinaryTree type="DecisionTree" boostWeight="1.4707373507496996e-01" itree="16">
      <Node pos="s" depth="0" NCoef="0" IVar="3" Cut="2.6274511218070984e-01" cType="0" res="-9.9000000000000000e+01" rms="0.0000000000000000e+00" purity="4.7390732169151306e-01" nType="0">
        <Node pos="l" depth="1" NCoef="0" IVar="5" Cut="1.4705883339047432e-02" cType="1" res="-9.9000000000000000e+01" rms="0.0000000000000000e+00" purity="4.8740702867507935e-01" nType="0">
          <Node pos="l" depth="2" NCoef="0" IVar="7" Cut="1.9792487844824791e-02" cType="0" res="-9.9000000000000000e+01" rms="0.0000000000000000e+00" purity="5.7895171642303467e-01" nType="0">
            <Node pos="l" depth="3" NCoef="0" IVar="-1" Cut="5.4785124957561493e-03" cType="1" res="-9.9000000000000000e+01" rms="0.0000000000000000e+00" purity="6.3609659671783447e-01" nType="1"/>
            <Node pos="r" depth="3" NCoef="0" IVar="7" Cut="5.5720028467476368e-03" cType="0" res="-9.9000000000000000e+01" rms="0.0000000000000000e+00" purity="4.9191212654113770e-01" nType="0">
              <Node pos="l" depth="4" NCoef="0" IVar="-1" Cut="0.0000000000000000e+00" cType="1" res="-9.9000000000000000e+01" rms="0.0000000000000000e+00" purity="5.3938084840774536e-01" nType="1"/>
              <Node pos="r" depth="4" NCoef="0" IVar="-1" Cut="0.0000000000000000e+00" cType="1" res="-9.9000000000000000e+01" rms="0.0000000000000000e+00" purity="3.9835119247436523e-01" nType="-1"/>
            </Node>
          </Node>
          <Node pos="r" depth="2" NCoef="0" IVar="-1" Cut="3.3081821441650391e+01" cType="1" res="-9.9000000000000000e+01" rms="0.0000000000000000e+00" purity="4.5395562052726746e-01" nType="-1"/>
        </Node>
        <Node pos="r" depth="1" NCoef="0" IVar="-1" Cut="0.0000000000000000e+00" cType="1" res="-9.9000000000000000e+01" rms="0.0000000000000000e+00" purity="2.3004606366157532e-01" nType="-1"/>
      </Node>
    </BinaryTree>
    <BinaryTree type="DecisionTree" boostWeight="1.4128642867003680e-01" itree="17">
      <Node pos="s" depth="0" NCoef="0" IVar="10" Cut="3.5455939173698425e-01" cType="0" res="-9.9000000000000000e+01" rms="0.0000000000000000e+00" purity="4.8702949285507202e-01" nType="0">
        <Node pos="l" depth="1" NCoef="0" IVar="9" Cut="3.9900818467140198e-01" cType="0" res="-9.9000000000000000e+01" rms="0.0000000000000000e+00" purity="4.9759382009506226e-01" nType="0">
          <Node pos="l" depth="2" NCoef="0" IVar="11" Cut="3.6209902167320251e-01" cType="0" res="-9.9000000000000000e+01" rms="0.0000000000000000e+00" purity="5.0802564620971680e-01" nType="0">
            <Node pos="l" depth="3" NCoef="0" IVar="5" Cut="8.2352943718433380e-02" cType="1" res="-9.9000000000000000e+01" rms="0.0000000000000000e+00" purity="5.1904249191284180e-01" nType="0">
              <Node pos="l" depth="4" NCoef="0" IVar="-1" Cut="0.0000000000000000e+00" cType="1" res="-9.9000000000000000e+01" rms="0.0000000000000000e+00" purity="5.3418940305709839e-01" nType="1"/>
              <Node pos="r" depth="4" NCoef="0" IVar="-1" Cut="0.0000000000000000e+00" cType="1" res="-9.9000000000000000e+01" rms="0.0000000000000000e+00" purity="3.1629818677902222e-01" nType="-1"/>
            </Node>
            <Node pos="r" depth="3" NCoef="0" IVar="-1" Cut="0.0000000000000000e+00" cType="1" res="-9.9000000000000000e+01" rms="0.0000000000000000e+00" purity="2.2390331327915192e-01" nType="-1"/>
          </Node>
          <Node pos="r" depth="2" NCoef="0" IVar="-1" Cut="0.0000000000000000e+00" cType="1" res="-9.9000000000000000e+01" rms="0.0000000000000000e+00" purity="2.0915427803993225e-01" nType="-1"/>
        </Node>
        <Node pos="r" depth="1" NCoef="0" IVar="-1" Cut="0.0000000000000000e+00" cType="1" res="-9.9000000000000000e+01" rms="0.0000000000000000e+00" purity="1.6997373104095459e-01" nType="-1"/>
      </Node>
    </BinaryTree>
    <BinaryTree type="DecisionTree" boostWeight="1.6796574423029820e-01" itree="18">
      <Node pos="s" depth="0" NCoef="0" IVar="10" Cut="3.4251347184181213e-01" cType="0" res="-9.9000000000000000e+01" rms="0.0000000000000000e+00" purity="4.7484505176544189e-01" nType="0">
        <Node pos="l" depth="1" NCoef="0" IVar="1" Cut="3.0054651260375977e+01" cType="1" res="-9.9000000000000000e+01" rms="0.0000000000000000e+00" purity="4.8419523239135742e-01" nType="0">
          <Node pos="l" depth="2" NCoef="0" IVar="5" Cut="8.8235296308994293e-02" cType="1" res="-9.9000000000000000e+01" rms="0.0000000000000000e+00" purity="5.1017642021179199e-01" nType="0">
            <Node pos="l" depth="3" NCoef="0" IVar="9" Cut="4.3800395727157593e-01" cType="0" res="-9.9000000000000000e+01" rms="0.0000000000000000e+00" purity="5.2462267875671387e-01" nType="0">
              <Node pos="l" depth="4" NCoef="0" IVar="-1" Cut="0.0000000000000000e+00" cType="1" res="-9.9000000000000000e+01" rms="0.0000000000000000e+00" purity="5.3723871707916260e-01" nType="1"/>
              <Node pos="r" depth="4" NCoef="0" IVar="-1" Cut="0.0000000000000000e+00" cType="1" res="-9.9000000000000000e+01" rms="0.0000000000000000e+00" purity="2.7892947196960449e-01" nType="-1"/>
            </Node>
            <Node pos="r" depth="3" NCoef="0" IVar="-1" Cut="0.0000000000000000e+00" cType="1" res="-9.9000000000000000e+01" rms="0.0000000000000000e+00" purity="3.1298649311065674e-01" nType="-1"/>
          </Node>
          <Node pos="r" depth="2" NCoef="0" IVar="5" Cut="5.8823530562222004e-03" cType="1" res="-9.9000000000000000e+01" rms="0.0000000000000000e+00" purity="3.8250932097434998e-01" nType="0">
            <Node pos="l" depth="3" NCoef="0" IVar="-1" Cut="0.0000000000000000e+00" cType="1" res="-9.9000000000000000e+01" rms="0.0000000000000000e+00" purity="6.0476666688919067e-01" nType="1"/>
            <Node pos="r" depth="3" NCoef="0" IVar="-1" Cut="4.2557239532470703e+01" cType="1" res="-9.9000000000000000e+01" rms="0.0000000000000000e+00" purity="3.3643761277198792e-01" nType="-1"/>
          </Node>
        </Node>
        <Node pos="r" depth="1" NCoef="0" IVar="-1" Cut="0.0000000000000000e+00" cType="1" res="-9.9000000000000000e+01" rms="0.0000000000000000e+00" purity="1.8092234432697296e-01" nType="-1"/>
      </Node>
    </BinaryTree>
    <BinaryTree type="DecisionTree" boostWeight="1.6556486927946626e-01" itree="19">
      <Node pos="s" depth="0" NCoef="0" IVar="4" Cut="2.9416179656982422e+00" cType="1" res="-9.9000000000000000e+01" rms="0.0000000000000000e+00" purity="4.6623069047927856e-01" nType="0">
        <Node pos="l" depth="1" NCoef="0" IVar="10" Cut="4.0417599678039551e-01" cType="0" res="-9.9000000000000000e+01" rms="0.0000000000000000e+00" purity="4.9217182397842407e-01" nType="0">
          <Node pos="l" depth="2" NCoef="0" IVar="5" Cut="1.1764706112444401e-02" cType="1" res="-9.9000000000000000e+01" rms="0.0000000000000000e+00" purity="5.0193899869918823e-01" nType="0">
            <Node pos="l" depth="3" NCoef="0" IVar="7" Cut="1.9792487844824791e-02" cType="0" res="-9.9000000000000000e+01" rms="0.0000000000000000e+00" purity="5.8732718229293823e-01" nType="0">
              <Node pos="l" depth="4" NCoef="0" IVar="-1" Cut="0.0000000000000000e+00" cType="1" res="-9.9000000000000000e+01" rms="0.0000000000000000e+00" purity="6.4856922626495361e-01" nType="1"/>
              <Node pos="r" depth="4" NCoef="0" IVar="-1" Cut="0.0000000000000000e+00" cType="1" res="-9.9000000000000000e+01" rms="0.0000000000000000e+00" purity="4.9148008227348328e-01" nType="-1"/>
            </Node>
            <Node pos="r" depth="3" NCoef="0" IVar="1" Cut="1.9603902816772461e+01" cType="1" res="-9.9000000000000000e+01" rms="0.0000000000000000e+00" purity="4.7820296883583069e-01" nType="0">
              <Node pos="l" depth="4" NCoef="0" IVar="-1" Cut="0.0000000000000000e+00" cType="1" res="-9.9000000000000000e+01" rms="0.0000000000000000e+00" purity="5.3470557928085327e-01" nType="1"/>
              <Node pos="r" depth="4" NCoef="0" IVar="-1" Cut="0.0000000000000000e+00" cType="1" res="-9.9000000000000000e+01" rms="0.0000000000000000e+00" purity="4.3284404277801514e-01" nType="-1"/>
            </Node>
          </Node>
          <Node pos="r" depth="2" NCoef="0" IVar="-1" Cut="0.0000000000000000e+00" cType="1" res="-9.9000000000000000e+01" rms="0.0000000000000000e+00" purity="2.7219748497009277e-01" nType="-1"/>
        </Node>
        <Node pos="r" depth="1" NCoef="0" IVar="-1" Cut="7.1181578636169434e+00" cType="1" res="-9.9000000000000000e+01" rms="0.0000000000000000e+00" purity="3.6726078391075134e-01" nType="-1"/>
      </Node>
    </BinaryTree>
    <BinaryTree type="DecisionTree" boostWeight="1.0434786139636829e-01" itree="20">
      <Node pos="s" depth="0" NCoef="0" IVar="11" Cut="3.3843135833740234e-01" cType="0" res="-9.9000000000000000e+01" rms="0.0000000000000000e+00" purity="4.6711945533752441e-01" nType="0">
        <Node pos="l" depth="1" NCoef="0" IVar="10" Cut="3.5103645920753479e-01" cType="0" res="-9.9000000000000000e+01" rms="0.0000000000000000e+00" purity="4.7562193870544434e-01" nType="0">
          <Node pos="l" depth="2" NCoef="0" IVar="9" Cut="4.0138247609138489e-01" cType="0" res="-9.9000000000000000e+01" rms="0.0000000000000000e+00" purity="4.8398613929748535e-01" nType="0">
            <Node pos="l" depth="3" NCoef="0" IVar="5" Cut="5.0000000745058060e-02" cType="1" res="-9.9000000000000000e+01" rms="0.0000000000000000e+00" purity="4.9183878302574158e-01" nType="0">
              <Node pos="l" depth="4" NCoef="0" IVar="-1" Cut="0.0000000000000000e+00" cType="1" res="-9.9000000000000000e+01" rms="0.0000000000000000e+00" purity="5.1349508762359619e-01" nType="1"/>
              <Node pos="r" depth="4" NCoef="0" IVar="-1" Cut="0.0000000000000000e+00" cType="1" res="-9.9000000000000000e+01" rms="0.0000000000000000e+00" purity="4.1496229171752930e-01" nType="-1"/>
            </Node>
            <Node pos="r" depth="3" NCoef="0" IVar="-1" Cut="0.0000000000000000e+00" cType="1" res="-9.9000000000000000e+01" rms="0.0000000000000000e+00" purity="2.5943121314048767e-01" nType="-1"/>
          </Node>
          <Node pos="r" depth="2" NCoef="0" IVar="-1" Cut="0.0000000000000000e+00" cType="1" res="-9.9000000000000000e+01" rms="0.0000000000000000e+00" purity="2.0690813660621643e-01" nType="-1"/>
        </Node>
        <Node pos="r" depth="1" NCoef="0" IVar="-1" Cut="0.0000000000000000e+00" cType="1" res="-9.9000000000000000e+01" rms="0.0000000000000000e+00" purity="2.0825408399105072e-01" nType="-1"/>
      </Node>
    </BinaryTree>
    <BinaryTree type="DecisionTree" boostWeight="1.0660652507312388e-01" itree="21">
      <Node pos="s" depth="0" NCoef="0" IVar="11" Cut="3.4161621332168579e-01" cType="0" res="-9.9000000000000000e+01" rms="0.0000000000000000e+00" purity="4.6330070495605469e-01" nType="0">
        <Node pos="l" depth="1" NCoef="0" IVar="9" Cut="4.0077927708625793e-01" cType="0" res="-9.9000000000000000e+01" rms="0.0000000000000000e+00" purity="4.7197473049163818e-01" nType="0">
          <Node pos="l" depth="2" NCoef="0" IVar="10" Cut="5.4365384578704834e-01" cType="0" res="-9.9000000000000000e+01" rms="0.0000000000000000e+00" purity="4.7953552007675171e-01" nType="0">
            <Node pos="l" depth="3" NCoef="0" IVar="1" Cut="3.8688964843750000e+01" cType="1" res="-9.9000000000000000e+01" rms="0.0000000000000000e+00" purity="5.0130659341812134e-01" nType="0">
              <Node pos="l" depth="4" NCoef="0" IVar="-1" Cut="0.0000000000000000e+00" cType="1" res="-9.9000000000000000e+01" rms="0.0000000000000000e+00" purity="5.1215767860412598e-01" nType="1"/>
              <Node pos="r" depth="4" NCoef="0" IVar="-1" Cut="0.0000000000000000e+00" cType="1" res="-9.9000000000000000e+01" rms="0.0000000000000000e+00" purity="3.7978500127792358e-01" nType="-1"/>
            </Node>
            <Node pos="r" depth="3" NCoef="0" IVar="-1" Cut="3.8004723191261292e-01" cType="0" res="-9.9000000000000000e+01" rms="0.0000000000000000e+00" purity="4.0066578984260559e-01" nType="-1"/>
          </Node>
          <Node pos="r" depth="2" NCoef="0" IVar="-1" Cut="0.0000000000000000e+00" cType="1" res="-9.9000000000000000e+01" rms="0.0000000000000000e+00" purity="2.5417706370353699e-01" nType="-1"/>
        </Node>
        <Node pos="r" depth="1" NCoef="0" IVar="-1" Cut="0.0000000000000000e+00" cType="1" res="-9.9000000000000000e+01" rms="0.0000000000000000e+00" purity="1.8067167699337006e-01" nType="-1"/>
      </Node>
    </BinaryTree>
    <BinaryTree type="DecisionTree" boostWeight="1.3539005117428141e-01" itree="22">
      <Node pos="s" depth="0" NCoef="0" IVar="10" Cut="3.5471266508102417e-01" cType="0" res="-9.9000000000000000e+01" rms="0.0000000000000000e+00" purity="4.6154800057411194e-01" nType="0">
        <Node pos="l" depth="1" NCoef="0" IVar="11" Cut="3.6176520586013794e-01" cType="0" res="-9.9000000000000000e+01" rms="0.0000000000000000e+00" purity="4.6932294964790344e-01" nType="0">
          <Node pos="l" depth="2" NCoef="0" IVar="4" Cut="9.8052722215652466e-01" cType="1" res="-9.9000000000000000e+01" rms="0.0000000000000000e+00" purity="4.7752624750137329e-01" nType="0">
            <Node pos="l" depth="3" NCoef="0" IVar="9" Cut="6.2218964099884033e-01" cType="0" res="-9.9000000000000000e+01" rms="0.0000000000000000e+00" purity="5.2452594041824341e-01" nType="0">
              <Node pos="l" depth="4" NCoef="0" IVar="-1" Cut="0.0000000000000000e+00" cType="1" res="-9.9000000000000000e+01" rms="0.0000000000000000e+00" purity="5.8273071050643921e-01" nType="1"/>
              <Node pos="r" depth="4" NCoef="0" IVar="-1" Cut="0.0000000000000000e+00" cType="1" res="-9.9000000000000000e+01" rms="0.0000000000000000e+00" purity="4.7921466827392578e-01" nType="-1"/>
            </Node>
            <Node pos="r" depth="3" NCoef="0" IVar="-1" Cut="5.8823533356189728e-02" cType="1" res="-9.9000000000000000e+01" rms="0.0000000000000000e+00" purity="4.4277632236480713e-01" nType="-1"/>
          </Node>
          <Node pos="r" depth="2" NCoef="0" IVar="-1" Cut="0.0000000000000000e+00" cType="1" res="-9.9000000000000000e+01" rms="0.0000000000000000e+00" purity="2.4327620863914490e-01" nType="-1"/>
        </Node>
        <Node pos="r" depth="1" NCoef="0" IVar="-1" Cut="0.0000000000000000e+00" cType="1" res="-9.9000000000000000e+01" rms="0.0000000000000000e+00" purity="2.0568291842937469e-01" nType="-1"/>
      </Node>
    </BinaryTree>
    <BinaryTree type="DecisionTree" boostWeight="1.5513578914823076e-01" itree="23">
      <Node pos="s" depth="0" NCoef="0" IVar="3" Cut="2.7843138575553894e-01" cType="0" res="-9.9000000000000000e+01" rms="0.0000000000000000e+00" purity="4.8327392339706421e-01" nType="0">
        <Node pos="l" depth="1" NCoef="0" IVar="5" Cut="1.1764706112444401e-02" cType="1" res="-9.9000000000000000e+01" rms="0.0000000000000000e+00" purity="4.9474385380744934e-01" nType="0">
          <Node pos="l" depth="2" NCoef="0" IVar="4" Cut="1.4716091156005859e+00" cType="1" res="-9.9000000000000000e+01" rms="0.0000000000000000e+00" purity="5.8117693662643433e-01" nType="0">
            <Node pos="l" depth="3" NCoef="0" IVar="-1" Cut="1.0023818351328373e-02" cType="0" res="-9.9000000000000000e+01" rms="0.0000000000000000e+00" purity="6.3537645339965820e-01" nType="1"/>
            <Node pos="r" depth="3" NCoef="0" IVar="7" Cut="2.9707623645663261e-02" cType="0" res="-9.9000000000000000e+01" rms="0.0000000000000000e+00" purity="4.9460974335670471e-01" nType="0">
              <Node pos="l" depth="4" NCoef="0" IVar="-1" Cut="0.0000000000000000e+00" cType="1" res="-9.9000000000000000e+01" rms="0.0000000000000000e+00" purity="5.6752896308898926e-01" nType="1"/>
              <Node pos="r" depth="4" NCoef="0" IVar="-1" Cut="0.0000000000000000e+00" cType="1" res="-9.9000000000000000e+01" rms="0.0000000000000000e+00" purity="4.3054848909378052e-01" nType="-1"/>
            </Node>
          </Node>
          <Node pos="r" depth="2" NCoef="0" IVar="4" Cut="4.9077495932579041e-01" cType="1" res="-9.9000000000000000e+01" rms="0.0000000000000000e+00" purity="4.7291392087936401e-01" nType="0">
            <Node pos="l" depth="3" NCoef="0" IVar="-1" Cut="6.3329416513442993e-01" cType="0" res="-9.9000000000000000e+01" rms="0.0000000000000000e+00" purity="5.5171144008636475e-01" nType="1"/>
            <Node pos="r" depth="3" NCoef="0" IVar="6" Cut="3.7571994781494141e+01" cType="0" res="-9.9000000000000000e+01" rms="0.0000000000000000e+00" purity="4.5323684811592102e-01" nType="0">
              <Node pos="l" depth="4" NCoef="0" IVar="-1" Cut="0.0000000000000000e+00" cType="1" res="-9.9000000000000000e+01" rms="0.0000000000000000e+00" purity="5.4103821516036987e-01" nType="1"/>
              <Node pos="r" depth="4" NCoef="0" IVar="-1" Cut="0.0000000000000000e+00" cType="1" res="-9.9000000000000000e+01" rms="0.0000000000000000e+00" purity="4.3545365333557129e-01" nType="-1"/>
            </Node>
          </Node>
        </Node>
        <Node pos="r" depth="1" NCoef="0" IVar="-1" Cut="0.0000000000000000e+00" cType="1" res="-9.9000000000000000e+01" rms="0.0000000000000000e+00" purity="2.9041627049446106e-01" nType="-1"/>
      </Node>
    </BinaryTree>
    <BinaryTree type="DecisionTree" boostWeight="1.0130320009868878e-01" itree="24">
      <Node pos="s" depth="0" NCoef="0" IVar="3" Cut="2.7843138575553894e-01" cType="0" res="-9.9000000000000000e+01" rms="0.0000000000000000e+00" purity="4.7579810023307800e-01" nType="0">
        <Node pos="l" depth="1" NCoef="0" IVar="1" Cut="3.5904651641845703e+01" cType="1" res="-9.9000000000000000e+01" rms="0.0000000000000000e+00" purity="4.8619806766510010e-01" nType="0">
          <Node pos="l" depth="2" NCoef="0" IVar="2" Cut="4.7768177032470703e+01" cType="1" res="-9.9000000000000000e+01" rms="0.0000000000000000e+00" purity="5.0026565790176392e-01" nType="0">
            <Node pos="l" depth="3" NCoef="0" IVar="8" Cut="4.9019608497619629e+00" cType="1" res="-9.9000000000000000e+01" rms="0.0000000000000000e+00" purity="5.0810158252716064e-01" nType="0">
              <Node pos="l" depth="4" NCoef="0" IVar="-1" Cut="0.0000000000000000e+00" cType="1" res="-9.9000000000000000e+01" rms="0.0000000000000000e+00" purity="5.1706284284591675e-01" nType="1"/>
              <Node pos="r" depth="4" NCoef="0" IVar="-1" Cut="0.0000000000000000e+00" cType="1" res="-9.9000000000000000e+01" rms="0.0000000000000000e+00" purity="3.5279983282089233e-01" nType="-1"/>
            </Node>
            <Node pos="r" depth="3" NCoef="0" IVar="-1" Cut="0.0000000000000000e+00" cType="1" res="-9.9000000000000000e+01" rms="0.0000000000000000e+00" purity="2.8303709626197815e-01" nType="-1"/>
          </Node>
          <Node pos="r" depth="2" NCoef="0" IVar="-1" Cut="2.6992755889892578e+01" cType="0" res="-9.9000000000000000e+01" rms="0.0000000000000000e+00" purity="3.7124946713447571e-01" nType="-1"/>
        </Node>
        <Node pos="r" depth="1" NCoef="0" IVar="-1" Cut="0.0000000000000000e+00" cType="1" res="-9.9000000000000000e+01" rms="0.0000000000000000e+00" purity="2.8964775800704956e-01" nType="-1"/>
      </Node>
    </BinaryTree>
    <BinaryTree type="DecisionTree" boostWeight="1.2593099707858377e-01" itree="25">
      <Node pos="s" depth="0" NCoef="0" IVar="11" Cut="4.3355080485343933e-01" cType="0" res="-9.9000000000000000e+01" rms="0.0000000000000000e+00" purity="4.6815666556358337e-01" nType="0">
        <Node pos="l" depth="1" NCoef="0" IVar="9" Cut="4.3716830015182495e-01" cType="0" res="-9.9000000000000000e+01" rms="0.0000000000000000e+00" purity="4.7952044010162354e-01" nType="0">
          <Node pos="l" depth="2" NCoef="0" IVar="10" Cut="5.8649754524230957e-01" cType="0" res="-9.9000000000000000e+01" rms="0.0000000000000000e+00" purity="4.8805099725723267e-01" nType="0">
            <Node pos="l" depth="3" NCoef="0" IVar="7" Cut="9.8246568813920021e-03" cType="0" res="-9.9000000000000000e+01" rms="0.0000000000000000e+00" purity="5.1674133539199829e-01" nType="0">
              <Node pos="l" depth="4" NCoef="0" IVar="-1" Cut="0.0000000000000000e+00" cType="1" res="-9.9000000000000000e+01" rms="0.0000000000000000e+00" purity="5.4480087757110596e-01" nType="1"/>
              <Node pos="r" depth="4" NCoef="0" IVar="-1" Cut="0.0000000000000000e+00" cType="1" res="-9.9000000000000000e+01" rms="0.0000000000000000e+00" purity="4.6457961201667786e-01" nType="-1"/>
            </Node>
            <Node pos="r" depth="3" NCoef="0" IVar="-1" Cut="3.6114028930664062e+01" cType="1" res="-9.9000000000000000e+01" rms="0.0000000000000000e+00" purity="4.4566571712493896e-01" nType="-1"/>
          </Node>
          <Node pos="r" depth="2" NCoef="0" IVar="-1" Cut="0.0000000000000000e+00" cType="1" res="-9.9000000000000000e+01" rms="0.0000000000000000e+00" purity="3.0574873089790344e-01" nType="-1"/>
        </Node>
        <Node pos="r" depth="1" NCoef="0" IVar="-1" Cut="3.2327541708946228e-01" cType="0" res="-9.9000000000000000e+01" rms="0.0000000000000000e+00" purity="3.1774431467056274e-01" nType="-1"/>
      </Node>
    </BinaryTree>
    <BinaryTree type="DecisionTree" boostWeight="1.1373007700805518e-01" itree="26">
      <Node pos="s" depth="0" NCoef="0" IVar="10" Cut="3.4251347184181213e-01" cType="0" res="-9.9000000000000000e+01" rms="0.0000000000000000e+00" purity="4.7492155432701111e-01" nType="0">
        <Node pos="l" depth="1" NCoef="0" IVar="11" Cut="3.6024898290634155e-01" cType="0" res="-9.9000000000000000e+01" rms="0.0000000000000000e+00" purity="4.8146903514862061e-01" nType="0">
          <Node pos="l" depth="2" NCoef="0" IVar="9" Cut="5.6741070747375488e-01" cType="0" res="-9.9000000000000000e+01" rms="0.0000000000000000e+00" purity="4.8849883675575256e-01" nType="0">
            <Node pos="l" depth="3" NCoef="0" IVar="1" Cut="1.9411575317382812e+01" cType="1" res="-9.9000000000000000e+01" rms="0.0000000000000000e+00" purity="5.0871849060058594e-01" nType="0">
              <Node pos="l" depth="4" NCoef="0" IVar="-1" Cut="0.0000000000000000e+00" cType="1" res="-9.9000000000000000e+01" rms="0.0000000000000000e+00" purity="5.6135952472686768e-01" nType="1"/>
              <Node pos="r" depth="4" NCoef="0" IVar="-1" Cut="0.0000000000000000e+00" cType="1" res="-9.9000000000000000e+01" rms="0.0000000000000000e+00" purity="4.7896456718444824e-01" nType="-1"/>
            </Node>
            <Node pos="r" depth="3" NCoef="0" IVar="-1" Cut="3.9800551533699036e-01" cType="0" res="-9.9000000000000000e+01" rms="0.0000000000000000e+00" purity="4.2534112930297852e-01" nType="-1"/>
          </Node>
          <Node pos="r" depth="2" NCoef="0" IVar="-1" Cut="0.0000000000000000e+00" cType="1" res="-9.9000000000000000e+01" rms="0.0000000000000000e+00" purity="2.8664353489875793e-01" nType="-1"/>
        </Node>
        <Node pos="r" depth="1" NCoef="0" IVar="-1" Cut="0.0000000000000000e+00" cType="1" res="-9.9000000000000000e+01" rms="0.0000000000000000e+00" purity="2.3390831053256989e-01" nType="-1"/>
      </Node>
    </BinaryTree>
    <BinaryTree type="DecisionTree" boostWeight="9.3881709882863942e-02" itree="27">
      <Node pos="s" depth="0" NCoef="0" IVar="10" Cut="3.4708857536315918e-01" cType="0" res="-9.9000000000000000e+01" rms="0.0000000000000000e+00" purity="4.7722211480140686e-01" nType="0">
        <Node pos="l" depth="1" NCoef="0" IVar="11" Cut="3.5317629575729370e-01" cType="0" res="-9.9000000000000000e+01" rms="0.0000000000000000e+00" purity="4.8398977518081665e-01" nType="0">
          <Node pos="l" depth="2" NCoef="0" IVar="5" Cut="1.0588235408067703e-01" cType="1" res="-9.9000000000000000e+01" rms="0.0000000000000000e+00" purity="4.9119275808334351e-01" nType="0">
            <Node pos="l" depth="3" NCoef="0" IVar="9" Cut="5.6737458705902100e-01" cType="0" res="-9.9000000000000000e+01" rms="0.0000000000000000e+00" purity="4.9791499972343445e-01" nType="0">
              <Node pos="l" depth="4" NCoef="0" IVar="-1" Cut="0.0000000000000000e+00" cType="1" res="-9.9000000000000000e+01" rms="0.0000000000000000e+00" purity="5.1735448837280273e-01" nType="1"/>
              <Node pos="r" depth="4" NCoef="0" IVar="-1" Cut="0.0000000000000000e+00" cType="1" res="-9.9000000000000000e+01" rms="0.0000000000000000e+00" purity="4.3663746118545532e-01" nType="-1"/>
            </Node>
            <Node pos="r" depth="3" NCoef="0" IVar="-1" Cut="0.0000000000000000e+00" cType="1" res="-9.9000000000000000e+01" rms="0.0000000000000000e+00" purity="2.9098999500274658e-01" nType="-1"/>
          </Node>
          <Node pos="r" depth="2" NCoef="0" IVar="-1" Cut="0.0000000000000000e+00" cType="1" res="-9.9000000000000000e+01" rms="0.0000000000000000e+00" purity="2.7003040909767151e-01" nType="-1"/>
        </Node>
        <Node pos="r" depth="1" NCoef="0" IVar="-1" Cut="0.0000000000000000e+00" cType="1" res="-9.9000000000000000e+01" rms="0.0000000000000000e+00" purity="2.2234344482421875e-01" nType="-1"/>
      </Node>
    </BinaryTree>
    <BinaryTree type="DecisionTree" boostWeight="9.4892287943019543e-02" itree="28">
      <Node pos="s" depth="0" NCoef="0" IVar="10" Cut="3.4831431508064270e-01" cType="0" res="-9.9000000000000000e+01" rms="0.0000000000000000e+00" purity="4.7908380627632141e-01" nType="0">
        <Node pos="l" depth="1" NCoef="0" IVar="11" Cut="6.1853045225143433e-01" cType="0" res="-9.9000000000000000e+01" rms="0.0000000000000000e+00" purity="4.8536914587020874e-01" nType="0">
          <Node pos="l" depth="2" NCoef="0" IVar="5" Cut="1.1764706112444401e-02" cType="1" res="-9.9000000000000000e+01" rms="0.0000000000000000e+00" purity="5.3928303718566895e-01" nType="0">
            <Node pos="l" depth="3" NCoef="0" IVar="-1" Cut="1.9950183108448982e-02" cType="0" res="-9.9000000000000000e+01" rms="0.0000000000000000e+00" purity="6.2615007162094116e-01" nType="1"/>
            <Node pos="r" depth="3" NCoef="0" IVar="10" Cut="6.3961070775985718e-01" cType="0" res="-9.9000000000000000e+01" rms="0.0000000000000000e+00" purity="5.1560902595520020e-01" nType="0">
              <Node pos="l" depth="4" NCoef="0" IVar="-1" Cut="0.0000000000000000e+00" cType="1" res="-9.9000000000000000e+01" rms="0.0000000000000000e+00" purity="6.0332769155502319e-01" nType="1"/>
              <Node pos="r" depth="4" NCoef="0" IVar="-1" Cut="0.0000000000000000e+00" cType="1" res="-9.9000000000000000e+01" rms="0.0000000000000000e+00" purity="4.9443688988685608e-01" nType="-1"/>
            </Node>
          </Node>
          <Node pos="r" depth="2" NCoef="0" IVar="-1" Cut="3.3756592869758606e-01" cType="0" res="-9.9000000000000000e+01" rms="0.0000000000000000e+00" purity="4.6039029955863953e-01" nType="-1"/>
        </Node>
        <Node pos="r" depth="1" NCoef="0" IVar="-1" Cut="0.0000000000000000e+00" cType="1" res="-9.9000000000000000e+01" rms="0.0000000000000000e+00" purity="2.4789533019065857e-01" nType="-1"/>
      </Node>
    </BinaryTree>
    <BinaryTree type="DecisionTree" boostWeight="8.3381008471379886e-02" itree="29">
      <Node pos="s" depth="0" NCoef="0" IVar="11" Cut="3.2557803392410278e-01" cType="0" res="-9.9000000000000000e+01" rms="0.0000000000000000e+00" purity="4.8675113916397095e-01" nType="0">
        <Node pos="l" depth="1" NCoef="0" IVar="5" Cut="5.8823530562222004e-03" cType="1" res="-9.9000000000000000e+01" rms="0.0000000000000000e+00" purity="4.9266973137855530e-01" nType="0">
          <Node pos="l" depth="2" NCoef="0" IVar="-1" Cut="2.0017594099044800e-02" cType="0" res="-9.9000000000000000e+01" rms="0.0000000000000000e+00" purity="6.1700880527496338e-01" nType="1"/>
          <Node pos="r" depth="2" NCoef="0" IVar="1" Cut="3.6768169403076172e+01" cType="1" res="-9.9000000000000000e+01" rms="0.0000000000000000e+00" purity="4.8223444819450378e-01" nType="0">
            <Node pos="l" depth="3" NCoef="0" IVar="5" Cut="6.5224960446357727e-02" cType="1" res="-9.9000000000000000e+01" rms="0.0000000000000000e+00" purity="4.9268314242362976e-01" nType="0">
              <Node pos="l" depth="4" NCoef="0" IVar="-1" Cut="0.0000000000000000e+00" cType="1" res="-9.9000000000000000e+01" rms="0.0000000000000000e+00" purity="5.0753939151763916e-01" nType="1"/>
              <Node pos="r" depth="4" NCoef="0" IVar="-1" Cut="0.0000000000000000e+00" cType="1" res="-9.9000000000000000e+01" rms="0.0000000000000000e+00" purity="4.0327271819114685e-01" nType="-1"/>
            </Node>
            <Node pos="r" depth="3" NCoef="0" IVar="-1" Cut="5.9346616268157959e-01" cType="0" res="-9.9000000000000000e+01" rms="0.0000000000000000e+00" purity="3.6020246148109436e-01" nType="-1"/>
          </Node>
        </Node>
        <Node pos="r" depth="1" NCoef="0" IVar="-1" Cut="0.0000000000000000e+00" cType="1" res="-9.9000000000000000e+01" rms="0.0000000000000000e+00" purity="2.6671367883682251e-01" nType="-1"/>
      </Node>
    </BinaryTree>
    <BinaryTree type="DecisionTree" boostWeight="9.8005775376855883e-02" itree="30">
      <Node pos="s" depth="0" NCoef="0" IVar="10" Cut="3.4471908211708069e-01" cType="0" res="-9.9000000000000000e+01" rms="0.0000000000000000e+00" purity="4.8004472255706787e-01" nType="0">
        <Node pos="l" depth="1" NCoef="0" IVar="11" Cut="6.0557210445404053e-01" cType="0" res="-9.9000000000000000e+01" rms="0.0000000000000000e+00" purity="4.8575350642204285e-01" nType="0">
          <Node pos="l" depth="2" NCoef="0" IVar="5" Cut="5.8823530562222004e-03" cType="1" res="-9.9000000000000000e+01" rms="0.0000000000000000e+00" purity="5.2478826045989990e-01" nType="0">
            <Node pos="l" depth="3" NCoef="0" IVar="-1" Cut="0.0000000000000000e+00" cType="1" res="-9.9000000000000000e+01" rms="0.0000000000000000e+00" purity="6.4602088928222656e-01" nType="1"/>
            <Node pos="r" depth="3" NCoef="0" IVar="1" Cut="2.5300821304321289e+01" cType="1" res="-9.9000000000000000e+01" rms="0.0000000000000000e+00" purity="5.1405847072601318e-01" nType="0">
              <Node pos="l" depth="4" NCoef="0" IVar="-1" Cut="0.0000000000000000e+00" cType="1" res="-9.9000000000000000e+01" rms="0.0000000000000000e+00" purity="5.3714919090270996e-01" nType="1"/>
              <Node pos="r" depth="4" NCoef="0" IVar="-1" Cut="0.0000000000000000e+00" cType="1" res="-9.9000000000000000e+01" rms="0.0000000000000000e+00" purity="4.6318268775939941e-01" nType="-1"/>
            </Node>
          </Node>
          <Node pos="r" depth="2" NCoef="0" IVar="-1" Cut="3.5937458038330078e+01" cType="1" res="-9.9000000000000000e+01" rms="0.0000000000000000e+00" purity="4.5743030309677124e-01" nType="-1"/>
        </Node>
        <Node pos="r" depth="1" NCoef="0" IVar="-1" Cut="0.0000000000000000e+00" cType="1" res="-9.9000000000000000e+01" rms="0.0000000000000000e+00" purity="2.8249615430831909e-01" nType="-1"/>
      </Node>
    </BinaryTree>
    <BinaryTree type="DecisionTree" boostWeight="1.0529565191377507e-01" itree="31">
      <Node pos="s" depth="0" NCoef="0" IVar="10" Cut="3.5118973255157471e-01" cType="0" res="-9.9000000000000000e+01" rms="0.0000000000000000e+00" purity="4.8487994074821472e-01" nType="0">
        <Node pos="l" depth="1" NCoef="0" IVar="11" Cut="3.3775171637535095e-01" cType="0" res="-9.9000000000000000e+01" rms="0.0000000000000000e+00" purity="4.9056953191757202e-01" nType="0">
          <Node pos="l" depth="2" NCoef="0" IVar="5" Cut="5.8823530562222004e-03" cType="1" res="-9.9000000000000000e+01" rms="0.0000000000000000e+00" purity="4.9612087011337280e-01" nType="0">
            <Node pos="l" depth="3" NCoef="0" IVar="-1" Cut="3.9618231356143951e-02" cType="0" res="-9.9000000000000000e+01" rms="0.0000000000000000e+00" purity="5.9568482637405396e-01" nType="1"/>
            <Node pos="r" depth="3" NCoef="0" IVar="1" Cut="1.6922719955444336e+01" cType="1" res="-9.9000000000000000e+01" rms="0.0000000000000000e+00" purity="4.8779788613319397e-01" nType="0">
              <Node pos="l" depth="4" NCoef="0" IVar="-1" Cut="0.0000000000000000e+00" cType="1" res="-9.9000000000000000e+01" rms="0.0000000000000000e+00" purity="5.5969256162643433e-01" nType="1"/>
              <Node pos="r" depth="4" NCoef="0" IVar="-1" Cut="0.0000000000000000e+00" cType="1" res="-9.9000000000000000e+01" rms="0.0000000000000000e+00" purity="4.6705129742622375e-01" nType="-1"/>
            </Node>
          </Node>
          <Node pos="r" depth="2" NCoef="0" IVar="-1" Cut="0.0000000000000000e+00" cType="1" res="-9.9000000000000000e+01" rms="0.0000000000000000e+00" purity="2.9854473471641541e-01" nType="-1"/>
        </Node>
        <Node pos="r" depth="1" NCoef="0" IVar="-1" Cut="0.0000000000000000e+00" cType="1" res="-9.9000000000000000e+01" rms="0.0000000000000000e+00" purity="2.7126765251159668e-01" nType="-1"/>
      </Node>
    </BinaryTree>
    <BinaryTree type="DecisionTree" boostWeight="8.6690441071577432e-02" itree="32">
      <Node pos="s" depth="0" NCoef="0" IVar="10" Cut="3.5118973255157471e-01" cType="0" res="-9.9000000000000000e+01" rms="0.0000000000000000e+00" purity="4.9067115783691406e-01" nType="0">
        <Node pos="l" depth="1" NCoef="0" IVar="4" Cut="5.3925952911376953e+00" cType="1" res="-9.9000000000000000e+01" rms="0.0000000000000000e+00" purity="4.9621981382369995e-01" nType="0">
          <Node pos="l" depth="2" NCoef="0" IVar="11" Cut="3.5344532132148743e-01" cType="0" res="-9.9000000000000000e+01" rms="0.0000000000000000e+00" purity="5.0604844093322754e-01" nType="0">
            <Node pos="l" depth="3" NCoef="0" IVar="9" Cut="5.9701520204544067e-01" cType="0" res="-9.9000000000000000e+01" rms="0.0000000000000000e+00" purity="5.1097995042800903e-01" nType="0">
              <Node pos="l" depth="4" NCoef="0" IVar="-1" Cut="0.0000000000000000e+00" cType="1" res="-9.9000000000000000e+01" rms="0.0000000000000000e+00" purity="5.3142148256301880e-01" nType="1"/>
              <Node pos="r" depth="4" NCoef="0" IVar="-1" Cut="0.0000000000000000e+00" cType="1" res="-9.9000000000000000e+01" rms="0.0000000000000000e+00" purity="4.7725990414619446e-01" nType="-1"/>
            </Node>
            <Node pos="r" depth="3" NCoef="0" IVar="-1" Cut="0.0000000000000000e+00" cType="1" res="-9.9000000000000000e+01" rms="0.0000000000000000e+00" purity="3.5677292943000793e-01" nType="-1"/>
          </Node>
          <Node pos="r" depth="2" NCoef="0" IVar="-1" Cut="1.7314128875732422e+01" cType="0" res="-9.9000000000000000e+01" rms="0.0000000000000000e+00" purity="3.8368323445320129e-01" nType="-1"/>
        </Node>
        <Node pos="r" depth="1" NCoef="0" IVar="-1" Cut="0.0000000000000000e+00" cType="1" res="-9.9000000000000000e+01" rms="0.0000000000000000e+00" purity="2.8693479299545288e-01" nType="-1"/>
      </Node>
    </BinaryTree>
    <BinaryTree type="DecisionTree" boostWeight="1.2425791846828241e-01" itree="33">
      <Node pos="s" depth="0" NCoef="0" IVar="10" Cut="5.6892085075378418e-01" cType="0" res="-9.9000000000000000e+01" rms="0.0000000000000000e+00" purity="5.0187438726425171e-01" nType="0">
        <Node pos="l" depth="1" NCoef="0" IVar="4" Cut="5.3930077552795410e+00" cType="1" res="-9.9000000000000000e+01" rms="0.0000000000000000e+00" purity="5.2751696109771729e-01" nType="0">
          <Node pos="l" depth="2" NCoef="0" IVar="11" Cut="4.1370671987533569e-01" cType="0" res="-9.9000000000000000e+01" rms="0.0000000000000000e+00" purity="5.3862315416336060e-01" nType="0">
            <Node pos="l" depth="3" NCoef="0" IVar="6" Cut="4.4071173667907715e+00" cType="0" res="-9.9000000000000000e+01" rms="0.0000000000000000e+00" purity="5.4609060287475586e-01" nType="0">
              <Node pos="l" depth="4" NCoef="0" IVar="-1" Cut="0.0000000000000000e+00" cType="1" res="-9.9000000000000000e+01" rms="0.0000000000000000e+00" purity="5.5667114257812500e-01" nType="1"/>
              <Node pos="r" depth="4" NCoef="0" IVar="-1" Cut="0.0000000000000000e+00" cType="1" res="-9.9000000000000000e+01" rms="0.0000000000000000e+00" purity="4.6371218562126160e-01" nType="-1"/>
            </Node>
            <Node pos="r" depth="3" NCoef="0" IVar="-1" Cut="0.0000000000000000e+00" cType="1" res="-9.9000000000000000e+01" rms="0.0000000000000000e+00" purity="4.1046929359436035e-01" nType="-1"/>
          </Node>
          <Node pos="r" depth="2" NCoef="0" IVar="-1" Cut="0.0000000000000000e+00" cType="1" res="-9.9000000000000000e+01" rms="0.0000000000000000e+00" purity="3.9722013473510742e-01" nType="-1"/>
        </Node>
        <Node pos="r" depth="1" NCoef="0" IVar="3" Cut="4.0392157435417175e-01" cType="0" res="-9.9000000000000000e+01" rms="0.0000000000000000e+00" purity="4.4532948732376099e-01" nType="0">
          <Node pos="l" depth="2" NCoef="0" IVar="6" Cut="4.4192508697509766e+01" cType="0" res="-9.9000000000000000e+01" rms="0.0000000000000000e+00" purity="4.6885943412780762e-01" nType="0">
            <Node pos="l" depth="3" NCoef="0" IVar="-1" Cut="0.0000000000000000e+00" cType="1" res="-9.9000000000000000e+01" rms="0.0000000000000000e+00" purity="5.5351316928863525e-01" nType="1"/>
            <Node pos="r" depth="3" NCoef="0" IVar="-1" Cut="6.7729450762271881e-02" cType="1" res="-9.9000000000000000e+01" rms="0.0000000000000000e+00" purity="4.5624265074729919e-01" nType="-1"/>
          </Node>
          <Node pos="r" depth="2" NCoef="0" IVar="-1" Cut="0.0000000000000000e+00" cType="1" res="-9.9000000000000000e+01" rms="0.0000000000000000e+00" purity="3.4394013881683350e-01" nType="-1"/>
        </Node>
      </Node>
    </BinaryTree>
    <BinaryTree type="DecisionTree" boostWeight="8.9782243317506352e-02" itree="34">
      <Node pos="s" depth="0" NCoef="0" IVar="3" Cut="4.0392157435417175e-01" cType="0" res="-9.9000000000000000e+01" rms="0.0000000000000000e+00" purity="4.9282091856002808e-01" nType="0">
        <Node pos="l" depth="1" NCoef="0" IVar="11" Cut="6.4754384756088257e-01" cType="0" res="-9.9000000000000000e+01" rms="0.0000000000000000e+00" purity="5.0371617078781128e-01" nType="0">
          <Node pos="l" depth="2" NCoef="0" IVar="-1" Cut="6.0573881864547729e-01" cType="0" res="-9.9000000000000000e+01" rms="0.0000000000000000e+00" purity="5.9073817729949951e-01" nType="1"/>
          <Node pos="r" depth="2" NCoef="0" IVar="6" Cut="3.1719369888305664e+01" cType="0" res="-9.9000000000000000e+01" rms="0.0000000000000000e+00" purity="4.9373540282249451e-01" nType="0">
            <Node pos="l" depth="3" NCoef="0" IVar="8" Cut="1.3725490570068359e+00" cType="0" res="-9.9000000000000000e+01" rms="0.0000000000000000e+00" purity="5.4776012897491455e-01" nType="0">
              <Node pos="l" depth="4" NCoef="0" IVar="-1" Cut="0.0000000000000000e+00" cType="1" res="-9.9000000000000000e+01" rms="0.0000000000000000e+00" purity="6.4033663272857666e-01" nType="1"/>
              <Node pos="r" depth="4" NCoef="0" IVar="-1" Cut="0.0000000000000000e+00" cType="1" res="-9.9000000000000000e+01" rms="0.0000000000000000e+00" purity="4.8530179262161255e-01" nType="-1"/>
            </Node>
            <Node pos="r" depth="3" NCoef="0" IVar="-1" Cut="3.7254900932312012e+00" cType="1" res="-9.9000000000000000e+01" rms="0.0000000000000000e+00" purity="4.7849401831626892e-01" nType="-1"/>
          </Node>
        </Node>
        <Node pos="r" depth="1" NCoef="0" IVar="0" Cut="1.2474194526672363e+01" cType="1" res="-9.9000000000000000e+01" rms="0.0000000000000000e+00" purity="4.1231894493103027e-01" nType="0">
          <Node pos="l" depth="2" NCoef="0" IVar="1" Cut="2.1832592010498047e+01" cType="1" res="-9.9000000000000000e+01" rms="0.0000000000000000e+00" purity="4.6207144856452942e-01" nType="0">
            <Node pos="l" depth="3" NCoef="0" IVar="3" Cut="3.1594043970108032e-01" cType="1" res="-9.9000000000000000e+01" rms="0.0000000000000000e+00" purity="4.9568817019462585e-01" nType="0">
              <Node pos="l" depth="4" NCoef="0" IVar="-1" Cut="0.0000000000000000e+00" cType="1" res="-9.9000000000000000e+01" rms="0.0000000000000000e+00" purity="5.2735525369644165e-01" nType="1"/>
              <Node pos="r" depth="4" NCoef="0" IVar="-1" Cut="0.0000000000000000e+00" cType="1" res="-9.9000000000000000e+01" rms="0.0000000000000000e+00" purity="4.6317428350448608e-01" nType="-1"/>
            </Node>
            <Node pos="r" depth="3" NCoef="0" IVar="-1" Cut="0.0000000000000000e+00" cType="1" res="-9.9000000000000000e+01" rms="0.0000000000000000e+00" purity="4.0553364157676697e-01" nType="-1"/>
          </Node>
          <Node pos="r" depth="2" NCoef="0" IVar="-1" Cut="0.0000000000000000e+00" cType="1" res="-9.9000000000000000e+01" rms="0.0000000000000000e+00" purity="2.8635916113853455e-01" nType="-1"/>
        </Node>
      </Node>
    </BinaryTree>
    <BinaryTree type="DecisionTree" boostWeight="7.6773535286067257e-02" itree="35">
      <Node pos="s" depth="0" NCoef="0" IVar="3" Cut="2.7843138575553894e-01" cType="0" res="-9.9000000000000000e+01" rms="0.0000000000000000e+00" purity="5.0049495697021484e-01" nType="0">
        <Node pos="l" depth="1" NCoef="0" IVar="4" Cut="4.9024100303649902e+00" cType="1" res="-9.9000000000000000e+01" rms="0.0000000000000000e+00" purity="5.0737941265106201e-01" nType="0">
          <Node pos="l" depth="2" NCoef="0" IVar="11" Cut="6.4496433734893799e-01" cType="0" res="-9.9000000000000000e+01" rms="0.0000000000000000e+00" purity="5.1632964611053467e-01" nType="0">
            <Node pos="l" depth="3" NCoef="0" IVar="-1" Cut="7.0376038551330566e+00" cType="1" res="-9.9000000000000000e+01" rms="0.0000000000000000e+00" purity="5.8809143304824829e-01" nType="1"/>
            <Node pos="r" depth="3" NCoef="0" IVar="6" Cut="4.4071173667907715e+00" cType="0" res="-9.9000000000000000e+01" rms="0.0000000000000000e+00" purity="5.0696468353271484e-01" nType="0">
              <Node pos="l" depth="4" NCoef="0" IVar="-1" Cut="0.0000000000000000e+00" cType="1" res="-9.9000000000000000e+01" rms="0.0000000000000000e+00" purity="5.1600348949432373e-01" nType="1"/>
              <Node pos="r" depth="4" NCoef="0" IVar="-1" Cut="0.0000000000000000e+00" cType="1" res="-9.9000000000000000e+01" rms="0.0000000000000000e+00" purity="4.3734917044639587e-01" nType="-1"/>
            </Node>
          </Node>
          <Node pos="r" depth="2" NCoef="0" IVar="-1" Cut="4.7189645469188690e-02" cType="1" res="-9.9000000000000000e+01" rms="0.0000000000000000e+00" purity="4.2490735650062561e-01" nType="-1"/>
        </Node>
        <Node pos="r" depth="1" NCoef="0" IVar="-1" Cut="0.0000000000000000e+00" cType="1" res="-9.9000000000000000e+01" rms="0.0000000000000000e+00" purity="3.7598320841789246e-01" nType="-1"/>
      </Node>
    </BinaryTree>
    <BinaryTree type="DecisionTree" boostWeight="1.4350967668116890e-01" itree="36">
      <Node pos="s" depth="0" NCoef="0" IVar="5" Cut="4.4117648154497147e-02" cType="1" res="-9.9000000000000000e+01" rms="0.0000000000000000e+00" purity="4.8351958394050598e-01" nType="0">
        <Node pos="l" depth="1" NCoef="0" IVar="7" Cut="9.8573286086320877e-03" cType="0" res="-9.9000000000000000e+01" rms="0.0000000000000000e+00" purity="5.0106281042098999e-01" nType="0">
          <Node pos="l" depth="2" NCoef="0" IVar="1" Cut="3.3052028656005859e+01" cType="1" res="-9.9000000000000000e+01" rms="0.0000000000000000e+00" purity="5.2208536863327026e-01" nType="0">
            <Node pos="l" depth="3" NCoef="0" IVar="12" Cut="1.1696724891662598e+00" cType="0" res="-9.9000000000000000e+01" rms="0.0000000000000000e+00" purity="5.4173737764358521e-01" nType="0">
              <Node pos="l" depth="4" NCoef="0" IVar="-1" Cut="0.0000000000000000e+00" cType="1" res="-9.9000000000000000e+01" rms="0.0000000000000000e+00" purity="5.7095247507095337e-01" nType="1"/>
              <Node pos="r" depth="4" NCoef="0" IVar="-1" Cut="0.0000000000000000e+00" cType="1" res="-9.9000000000000000e+01" rms="0.0000000000000000e+00" purity="4.9249526858329773e-01" nType="-1"/>
            </Node>
            <Node pos="r" depth="3" NCoef="0" IVar="6" Cut="3.6590564727783203e+01" cType="0" res="-9.9000000000000000e+01" rms="0.0000000000000000e+00" purity="4.2957201600074768e-01" nType="0">
              <Node pos="l" depth="4" NCoef="0" IVar="-1" Cut="0.0000000000000000e+00" cType="1" res="-9.9000000000000000e+01" rms="0.0000000000000000e+00" purity="5.1394069194793701e-01" nType="1"/>
              <Node pos="r" depth="4" NCoef="0" IVar="-1" Cut="0.0000000000000000e+00" cType="1" res="-9.9000000000000000e+01" rms="0.0000000000000000e+00" purity="3.9197924733161926e-01" nType="-1"/>
            </Node>
          </Node>
          <Node pos="r" depth="2" NCoef="0" IVar="7" Cut="6.5895314328372478e-03" cType="0" res="-9.9000000000000000e+01" rms="0.0000000000000000e+00" purity="4.5914092659950256e-01" nType="0">
            <Node pos="l" depth="3" NCoef="0" IVar="-1" Cut="1.4711959362030029e+00" cType="1" res="-9.9000000000000000e+01" rms="0.0000000000000000e+00" purity="5.4872691631317139e-01" nType="1"/>
            <Node pos="r" depth="3" NCoef="0" IVar="-1" Cut="1.5136893272399902e+01" cType="1" res="-9.9000000000000000e+01" rms="0.0000000000000000e+00" purity="4.1522270441055298e-01" nType="-1"/>
          </Node>
        </Node>
        <Node pos="r" depth="1" NCoef="0" IVar="13" Cut="5.1377654075622559e+00" cType="1" res="-9.9000000000000000e+01" rms="0.0000000000000000e+00" purity="4.3662783503532410e-01" nType="0">
          <Node pos="l" depth="2" NCoef="0" IVar="8" Cut="5.8823531866073608e-01" cType="1" res="-9.9000000000000000e+01" rms="0.0000000000000000e+00" purity="5.0556397438049316e-01" nType="0">
            <Node pos="l" depth="3" NCoef="0" IVar="-1" Cut="0.0000000000000000e+00" cType="1" res="-9.9000000000000000e+01" rms="0.0000000000000000e+00" purity="6.0438722372055054e-01" nType="1"/>
            <Node pos="r" depth="3" NCoef="0" IVar="-1" Cut="7.1124754846096039e-02" cType="1" res="-9.9000000000000000e+01" rms="0.0000000000000000e+00" purity="4.3542689085006714e-01" nType="-1"/>
          </Node>
          <Node pos="r" depth="2" NCoef="0" IVar="6" Cut="3.8466327667236328e+01" cType="0" res="-9.9000000000000000e+01" rms="0.0000000000000000e+00" purity="3.8763362169265747e-01" nType="0">
            <Node pos="l" depth="3" NCoef="0" IVar="-1" Cut="0.0000000000000000e+00" cType="1" res="-9.9000000000000000e+01" rms="0.0000000000000000e+00" purity="5.1274973154067993e-01" nType="1"/>
            <Node pos="r" depth="3" NCoef="0" IVar="-1" Cut="2.1505277633666992e+01" cType="1" res="-9.9000000000000000e+01" rms="0.0000000000000000e+00" purity="3.5415399074554443e-01" nType="-1"/>
          </Node>
        </Node>
      </Node>
    </BinaryTree>
    <BinaryTree type="DecisionTree" boostWeight="8.8475451939253769e-02" itree="37">
      <Node pos="s" depth="0" NCoef="0" IVar="5" Cut="8.8235298171639442e-03" cType="1" res="-9.9000000000000000e+01" rms="0.0000000000000000e+00" purity="4.9464461207389832e-01" nType="0">
        <Node pos="l" depth="1" NCoef="0" IVar="5" Cut="3.6322590894997120e-03" cType="1" res="-9.9000000000000000e+01" rms="0.0000000000000000e+00" purity="5.6783318519592285e-01" nType="0">
          <Node pos="l" depth="2" NCoef="0" IVar="-1" Cut="0.0000000000000000e+00" cType="1" res="-9.9000000000000000e+01" rms="0.0000000000000000e+00" purity="6.6447925567626953e-01" nType="1"/>
          <Node pos="r" depth="2" NCoef="0" IVar="4" Cut="1.4735409021377563e+00" cType="1" res="-9.9000000000000000e+01" rms="0.0000000000000000e+00" purity="5.3557324409484863e-01" nType="0">
            <Node pos="l" depth="3" NCoef="0" IVar="-1" Cut="9.6553115844726562e+00" cType="0" res="-9.9000000000000000e+01" rms="0.0000000000000000e+00" purity="5.9463334083557129e-01" nType="1"/>
            <Node pos="r" depth="3" NCoef="0" IVar="-1" Cut="0.0000000000000000e+00" cType="1" res="-9.9000000000000000e+01" rms="0.0000000000000000e+00" purity="4.4097870588302612e-01" nType="-1"/>
          </Node>
        </Node>
        <Node pos="r" depth="1" NCoef="0" IVar="7" Cut="1.1768871545791626e-01" cType="1" res="-9.9000000000000000e+01" rms="0.0000000000000000e+00" purity="4.8289829492568970e-01" nType="0">
          <Node pos="l" depth="2" NCoef="0" IVar="6" Cut="4.3394596099853516e+01" cType="0" res="-9.9000000000000000e+01" rms="0.0000000000000000e+00" purity="4.9123930931091309e-01" nType="0">
            <Node pos="l" depth="3" NCoef="0" IVar="-1" Cut="1.3725490570068359e+00" cType="0" res="-9.9000000000000000e+01" rms="0.0000000000000000e+00" purity="5.8073419332504272e-01" nType="1"/>
            <Node pos="r" depth="3" NCoef="0" IVar="-1" Cut="4.9019608497619629e+00" cType="1" res="-9.9000000000000000e+01" rms="0.0000000000000000e+00" purity="4.7914558649063110e-01" nType="-1"/>
          </Node>
          <Node pos="r" depth="2" NCoef="0" IVar="-1" Cut="1.6251249313354492e+01" cType="1" res="-9.9000000000000000e+01" rms="0.0000000000000000e+00" purity="3.8188424706459045e-01" nType="-1"/>
        </Node>
      </Node>
    </BinaryTree>
    <BinaryTree type="DecisionTree" boostWeight="8.2235141513397864e-02" itree="38">
      <Node pos="s" depth="0" NCoef="0" IVar="1" Cut="4.2475204467773438e+01" cType="1" res="-9.9000000000000000e+01" rms="0.0000000000000000e+00" purity="5.0234204530715942e-01" nType="0">
        <Node pos="l" depth="1" NCoef="0" IVar="9" Cut="3.9943018555641174e-01" cType="0" res="-9.9000000000000000e+01" rms="0.0000000000000000e+00" purity="5.0996160507202148e-01" nType="0">
          <Node pos="l" depth="2" NCoef="0" IVar="5" Cut="1.0588235408067703e-01" cType="1" res="-9.9000000000000000e+01" rms="0.0000000000000000e+00" purity="5.1528710126876831e-01" nType="0">
            <Node pos="l" depth="3" NCoef="0" IVar="10" Cut="3.7018281221389771e-01" cType="0" res="-9.9000000000000000e+01" rms="0.0000000000000000e+00" purity="5.2042227983474731e-01" nType="0">
              <Node pos="l" depth="4" NCoef="0" IVar="-1" Cut="0.0000000000000000e+00" cType="1" res="-9.9000000000000000e+01" rms="0.0000000000000000e+00" purity="5.2538257837295532e-01" nType="1"/>
              <Node pos="r" depth="4" NCoef="0" IVar="-1" Cut="0.0000000000000000e+00" cType="1" res="-9.9000000000000000e+01" rms="0.0000000000000000e+00" purity="3.6346349120140076e-01" nType="-1"/>
            </Node>
            <Node pos="r" depth="3" NCoef="0" IVar="-1" Cut="0.0000000000000000e+00" cType="1" res="-9.9000000000000000e+01" rms="0.0000000000000000e+00" purity="3.6225157976150513e-01" nType="-1"/>
          </Node>
          <Node pos="r" depth="2" NCoef="0" IVar="-1" Cut="0.0000000000000000e+00" cType="1" res="-9.9000000000000000e+01" rms="0.0000000000000000e+00" purity="3.4808826446533203e-01" nType="-1"/>
        </Node>
        <Node pos="r" depth="1" NCoef="0" IVar="-1" Cut="6.0273498296737671e-01" cType="0" res="-9.9000000000000000e+01" rms="0.0000000000000000e+00" purity="3.8124266266822815e-01" nType="-1"/>
      </Node>
    </BinaryTree>
    <BinaryTree type="DecisionTree" boostWeight="6.4547420757358712e-02" itree="39">
      <Node pos="s" depth="0" NCoef="0" IVar="9" Cut="3.9942032098770142e-01" cType="0" res="-9.9000000000000000e+01" rms="0.0000000000000000e+00" purity="4.8254072666168213e-01" nType="0">
        <Node pos="l" depth="1" NCoef="0" IVar="5" Cut="1.0588235408067703e-01" cType="1" res="-9.9000000000000000e+01" rms="0.0000000000000000e+00" purity="4.8630756139755249e-01" nType="0">
          <Node pos="l" depth="2" NCoef="0" IVar="5" Cut="4.1521955281496048e-03" cType="1" res="-9.9000000000000000e+01" rms="0.0000000000000000e+00" purity="4.9004170298576355e-01" nType="0">
